digraph Tree {
node [shape=box] ;
0 [label="X[7] <= 29.5\ngini = 0.3962\nsamples = 2719\nvalue = [1979, 740]"] ;
1 [label="X[11] <= 3.5\ngini = 0.3592\nsamples = 2467\nvalue = [1888, 579]"] ;
0 -> 1 [labeldistance=2.5, labelangle=45, headlabel="True"] ;
2 [label="X[18] <= 200.5\ngini = 0.4532\nsamples = 1075\nvalue = [702, 373]"] ;
1 -> 2 ;
3 [label="X[16] <= 783.5\ngini = 0.3396\nsamples = 226\nvalue = [177, 49]"] ;
2 -> 3 ;
4 [label="X[16] <= 774.5\ngini = 0.4148\nsamples = 126\nvalue = [89, 37]"] ;
3 -> 4 ;
5 [label="X[19] <= 66.5\ngini = 0.3947\nsamples = 122\nvalue = [89, 33]"] ;
4 -> 5 ;
6 [label="X[14] <= 9.5\ngini = 0.4469\nsamples = 89\nvalue = [59, 30]"] ;
5 -> 6 ;
7 [label="X[18] <= 106.5\ngini = 0.4911\nsamples = 60\nvalue = [34, 26]"] ;
6 -> 7 ;
8 [label="X[17] <= 720.0\ngini = 0.5\nsamples = 48\nvalue = [24, 24]"] ;
7 -> 8 ;
9 [label="X[19] <= 64.0\ngini = 0.4688\nsamples = 32\nvalue = [20, 12]"] ;
8 -> 9 ;
10 [label="X[16] <= 625.5\ngini = 0.4444\nsamples = 30\nvalue = [20, 10]"] ;
9 -> 10 ;
11 [label="X[16] <= 559.0\ngini = 0.4734\nsamples = 26\nvalue = [16, 10]"] ;
10 -> 11 ;
12 [label="X[18] <= 52.0\ngini = 0.4444\nsamples = 24\nvalue = [16, 8]"] ;
11 -> 12 ;
13 [label="X[16] <= 533.5\ngini = 0.48\nsamples = 20\nvalue = [12, 8]"] ;
12 -> 13 ;
14 [label="X[16] <= 348.0\ngini = 0.4983\nsamples = 17\nvalue = [9, 8]"] ;
13 -> 14 ;
15 [label="X[17] <= 450.0\ngini = 0.3457\nsamples = 9\nvalue = [7, 2]"] ;
14 -> 15 ;
16 [label="gini = 0.0\nsamples = 1\nvalue = [0, 1]"] ;
15 -> 16 ;
17 [label="X[14] <= 8.0\ngini = 0.2188\nsamples = 8\nvalue = [7, 1]"] ;
15 -> 17 ;
18 [label="gini = 0.0\nsamples = 7\nvalue = [7, 0]"] ;
17 -> 18 ;
19 [label="gini = 0.0\nsamples = 1\nvalue = [0, 1]"] ;
17 -> 19 ;
20 [label="X[13] <= 15.0\ngini = 0.375\nsamples = 8\nvalue = [2, 6]"] ;
14 -> 20 ;
21 [label="X[17] <= 459.0\ngini = 0.2449\nsamples = 7\nvalue = [1, 6]"] ;
20 -> 21 ;
22 [label="X[16] <= 417.0\ngini = 0.5\nsamples = 2\nvalue = [1, 1]"] ;
21 -> 22 ;
23 [label="gini = 0.0\nsamples = 1\nvalue = [1, 0]"] ;
22 -> 23 ;
24 [label="gini = 0.0\nsamples = 1\nvalue = [0, 1]"] ;
22 -> 24 ;
25 [label="gini = 0.0\nsamples = 5\nvalue = [0, 5]"] ;
21 -> 25 ;
26 [label="gini = 0.0\nsamples = 1\nvalue = [1, 0]"] ;
20 -> 26 ;
27 [label="gini = 0.0\nsamples = 3\nvalue = [3, 0]"] ;
13 -> 27 ;
28 [label="gini = 0.0\nsamples = 4\nvalue = [4, 0]"] ;
12 -> 28 ;
29 [label="gini = 0.0\nsamples = 2\nvalue = [0, 2]"] ;
11 -> 29 ;
30 [label="gini = 0.0\nsamples = 4\nvalue = [4, 0]"] ;
10 -> 30 ;
31 [label="gini = 0.0\nsamples = 2\nvalue = [0, 2]"] ;
9 -> 31 ;
32 [label="X[3] <= 27.5\ngini = 0.375\nsamples = 16\nvalue = [4, 12]"] ;
8 -> 32 ;
33 [label="X[19] <= 46.0\ngini = 0.1653\nsamples = 11\nvalue = [1, 10]"] ;
32 -> 33 ;
34 [label="gini = 0.0\nsamples = 9\nvalue = [0, 9]"] ;
33 -> 34 ;
35 [label="X[7] <= -549.5\ngini = 0.5\nsamples = 2\nvalue = [1, 1]"] ;
33 -> 35 ;
36 [label="gini = 0.0\nsamples = 1\nvalue = [0, 1]"] ;
35 -> 36 ;
37 [label="gini = 0.0\nsamples = 1\nvalue = [1, 0]"] ;
35 -> 37 ;
38 [label="X[16] <= 637.5\ngini = 0.48\nsamples = 5\nvalue = [3, 2]"] ;
32 -> 38 ;
39 [label="gini = 0.0\nsamples = 3\nvalue = [3, 0]"] ;
38 -> 39 ;
40 [label="gini = 0.0\nsamples = 2\nvalue = [0, 2]"] ;
38 -> 40 ;
41 [label="X[14] <= -554.5\ngini = 0.2778\nsamples = 12\nvalue = [10, 2]"] ;
7 -> 41 ;
42 [label="X[9] <= -543.5\ngini = 0.5\nsamples = 4\nvalue = [2, 2]"] ;
41 -> 42 ;
43 [label="X[18] <= 132.0\ngini = 0.4444\nsamples = 3\nvalue = [1, 2]"] ;
42 -> 43 ;
44 [label="gini = 0.0\nsamples = 1\nvalue = [1, 0]"] ;
43 -> 44 ;
45 [label="gini = 0.0\nsamples = 2\nvalue = [0, 2]"] ;
43 -> 45 ;
46 [label="gini = 0.0\nsamples = 1\nvalue = [1, 0]"] ;
42 -> 46 ;
47 [label="gini = 0.0\nsamples = 8\nvalue = [8, 0]"] ;
41 -> 47 ;
48 [label="X[5] <= 82.0\ngini = 0.2378\nsamples = 29\nvalue = [25, 4]"] ;
6 -> 48 ;
49 [label="X[15] <= 30.5\ngini = 0.1913\nsamples = 28\nvalue = [25, 3]"] ;
48 -> 49 ;
50 [label="gini = 0.0\nsamples = 16\nvalue = [16, 0]"] ;
49 -> 50 ;
51 [label="X[18] <= 82.0\ngini = 0.375\nsamples = 12\nvalue = [9, 3]"] ;
49 -> 51 ;
52 [label="gini = 0.0\nsamples = 6\nvalue = [6, 0]"] ;
51 -> 52 ;
53 [label="X[19] <= 23.0\ngini = 0.5\nsamples = 6\nvalue = [3, 3]"] ;
51 -> 53 ;
54 [label="gini = 0.0\nsamples = 2\nvalue = [2, 0]"] ;
53 -> 54 ;
55 [label="X[3] <= 35.5\ngini = 0.375\nsamples = 4\nvalue = [1, 3]"] ;
53 -> 55 ;
56 [label="gini = 0.0\nsamples = 3\nvalue = [0, 3]"] ;
55 -> 56 ;
57 [label="gini = 0.0\nsamples = 1\nvalue = [1, 0]"] ;
55 -> 57 ;
58 [label="gini = 0.0\nsamples = 1\nvalue = [0, 1]"] ;
48 -> 58 ;
59 [label="X[8] <= 19.0\ngini = 0.1653\nsamples = 33\nvalue = [30, 3]"] ;
5 -> 59 ;
60 [label="X[19] <= 379.0\ngini = 0.0624\nsamples = 31\nvalue = [30, 1]"] ;
59 -> 60 ;
61 [label="gini = 0.0\nsamples = 30\nvalue = [30, 0]"] ;
60 -> 61 ;
62 [label="gini = 0.0\nsamples = 1\nvalue = [0, 1]"] ;
60 -> 62 ;
63 [label="gini = 0.0\nsamples = 2\nvalue = [0, 2]"] ;
59 -> 63 ;
64 [label="gini = 0.0\nsamples = 4\nvalue = [0, 4]"] ;
4 -> 64 ;
65 [label="X[11] <= 1.5\ngini = 0.2112\nsamples = 100\nvalue = [88, 12]"] ;
3 -> 65 ;
66 [label="X[2] <= 25.5\ngini = 0.1975\nsamples = 99\nvalue = [88, 11]"] ;
65 -> 66 ;
67 [label="X[8] <= 20.5\ngini = 0.1833\nsamples = 98\nvalue = [88, 10]"] ;
66 -> 67 ;
68 [label="X[19] <= 4.5\ngini = 0.1683\nsamples = 97\nvalue = [88, 9]"] ;
67 -> 68 ;
69 [label="X[15] <= -544.5\ngini = 0.42\nsamples = 10\nvalue = [7, 3]"] ;
68 -> 69 ;
70 [label="X[2] <= -548.0\ngini = 0.5\nsamples = 6\nvalue = [3, 3]"] ;
69 -> 70 ;
71 [label="X[17] <= 1099.0\ngini = 0.375\nsamples = 4\nvalue = [3, 1]"] ;
70 -> 71 ;
72 [label="gini = 0.0\nsamples = 3\nvalue = [3, 0]"] ;
71 -> 72 ;
73 [label="gini = 0.0\nsamples = 1\nvalue = [0, 1]"] ;
71 -> 73 ;
74 [label="gini = 0.0\nsamples = 2\nvalue = [0, 2]"] ;
70 -> 74 ;
75 [label="gini = 0.0\nsamples = 4\nvalue = [4, 0]"] ;
69 -> 75 ;
76 [label="X[18] <= 135.5\ngini = 0.1284\nsamples = 87\nvalue = [81, 6]"] ;
68 -> 76 ;
77 [label="gini = 0.0\nsamples = 42\nvalue = [42, 0]"] ;
76 -> 77 ;
78 [label="X[18] <= 137.5\ngini = 0.2311\nsamples = 45\nvalue = [39, 6]"] ;
76 -> 78 ;
79 [label="gini = 0.0\nsamples = 1\nvalue = [0, 1]"] ;
78 -> 79 ;
80 [label="X[15] <= 30.5\ngini = 0.2014\nsamples = 44\nvalue = [39, 5]"] ;
78 -> 80 ;
81 [label="X[16] <= 842.5\ngini = 0.1723\nsamples = 42\nvalue = [38, 4]"] ;
80 -> 81 ;
82 [label="X[19] <= 36.5\ngini = 0.5\nsamples = 2\nvalue = [1, 1]"] ;
81 -> 82 ;
83 [label="gini = 0.0\nsamples = 1\nvalue = [0, 1]"] ;
82 -> 83 ;
84 [label="gini = 0.0\nsamples = 1\nvalue = [1, 0]"] ;
82 -> 84 ;
85 [label="X[19] <= 45.5\ngini = 0.1388\nsamples = 40\nvalue = [37, 3]"] ;
81 -> 85 ;
86 [label="gini = 0.0\nsamples = 20\nvalue = [20, 0]"] ;
85 -> 86 ;
87 [label="X[19] <= 48.5\ngini = 0.255\nsamples = 20\nvalue = [17, 3]"] ;
85 -> 87 ;
88 [label="gini = 0.0\nsamples = 1\nvalue = [0, 1]"] ;
87 -> 88 ;
89 [label="X[18] <= 142.0\ngini = 0.1884\nsamples = 19\nvalue = [17, 2]"] ;
87 -> 89 ;
90 [label="X[17] <= 1014.5\ngini = 0.5\nsamples = 2\nvalue = [1, 1]"] ;
89 -> 90 ;
91 [label="gini = 0.0\nsamples = 1\nvalue = [1, 0]"] ;
90 -> 91 ;
92 [label="gini = 0.0\nsamples = 1\nvalue = [0, 1]"] ;
90 -> 92 ;
93 [label="X[18] <= 196.0\ngini = 0.1107\nsamples = 17\nvalue = [16, 1]"] ;
89 -> 93 ;
94 [label="gini = 0.0\nsamples = 14\nvalue = [14, 0]"] ;
93 -> 94 ;
95 [label="X[18] <= 198.5\ngini = 0.4444\nsamples = 3\nvalue = [2, 1]"] ;
93 -> 95 ;
96 [label="gini = 0.0\nsamples = 1\nvalue = [0, 1]"] ;
95 -> 96 ;
97 [label="gini = 0.0\nsamples = 2\nvalue = [2, 0]"] ;
95 -> 97 ;
98 [label="X[13] <= 26.5\ngini = 0.5\nsamples = 2\nvalue = [1, 1]"] ;
80 -> 98 ;
99 [label="gini = 0.0\nsamples = 1\nvalue = [0, 1]"] ;
98 -> 99 ;
100 [label="gini = 0.0\nsamples = 1\nvalue = [1, 0]"] ;
98 -> 100 ;
101 [label="gini = 0.0\nsamples = 1\nvalue = [0, 1]"] ;
67 -> 101 ;
102 [label="gini = 0.0\nsamples = 1\nvalue = [0, 1]"] ;
66 -> 102 ;
103 [label="gini = 0.0\nsamples = 1\nvalue = [0, 1]"] ;
65 -> 103 ;
104 [label="X[3] <= 43.5\ngini = 0.472\nsamples = 849\nvalue = [525, 324]"] ;
2 -> 104 ;
105 [label="X[9] <= -549.5\ngini = 0.4627\nsamples = 784\nvalue = [499, 285]"] ;
104 -> 105 ;
106 [label="X[14] <= 3.5\ngini = 0.4945\nsamples = 371\nvalue = [205, 166]"] ;
105 -> 106 ;
107 [label="X[16] <= 1390.0\ngini = 0.4855\nsamples = 282\nvalue = [165, 117]"] ;
106 -> 107 ;
108 [label="X[17] <= 2383.0\ngini = 0.3682\nsamples = 37\nvalue = [28, 9]"] ;
107 -> 108 ;
109 [label="X[17] <= 2108.0\ngini = 0.4281\nsamples = 29\nvalue = [20, 9]"] ;
108 -> 109 ;
110 [label="X[19] <= 54.0\ngini = 0.3841\nsamples = 27\nvalue = [20, 7]"] ;
109 -> 110 ;
111 [label="X[16] <= 883.0\ngini = 0.2873\nsamples = 23\nvalue = [19, 4]"] ;
110 -> 111 ;
112 [label="X[19] <= 23.5\ngini = 0.4444\nsamples = 3\nvalue = [1, 2]"] ;
111 -> 112 ;
113 [label="gini = 0.0\nsamples = 2\nvalue = [0, 2]"] ;
112 -> 113 ;
114 [label="gini = 0.0\nsamples = 1\nvalue = [1, 0]"] ;
112 -> 114 ;
115 [label="X[17] <= 704.0\ngini = 0.18\nsamples = 20\nvalue = [18, 2]"] ;
111 -> 115 ;
116 [label="gini = 0.0\nsamples = 1\nvalue = [0, 1]"] ;
115 -> 116 ;
117 [label="X[18] <= 308.5\ngini = 0.0997\nsamples = 19\nvalue = [18, 1]"] ;
115 -> 117 ;
118 [label="gini = 0.0\nsamples = 13\nvalue = [13, 0]"] ;
117 -> 118 ;
119 [label="X[18] <= 314.5\ngini = 0.2778\nsamples = 6\nvalue = [5, 1]"] ;
117 -> 119 ;
120 [label="gini = 0.0\nsamples = 1\nvalue = [0, 1]"] ;
119 -> 120 ;
121 [label="gini = 0.0\nsamples = 5\nvalue = [5, 0]"] ;
119 -> 121 ;
122 [label="X[16] <= 1352.5\ngini = 0.375\nsamples = 4\nvalue = [1, 3]"] ;
110 -> 122 ;
123 [label="gini = 0.0\nsamples = 3\nvalue = [0, 3]"] ;
122 -> 123 ;
124 [label="gini = 0.0\nsamples = 1\nvalue = [1, 0]"] ;
122 -> 124 ;
125 [label="gini = 0.0\nsamples = 2\nvalue = [0, 2]"] ;
109 -> 125 ;
126 [label="gini = 0.0\nsamples = 8\nvalue = [8, 0]"] ;
108 -> 126 ;
127 [label="X[17] <= 1246.5\ngini = 0.493\nsamples = 245\nvalue = [137, 108]"] ;
107 -> 127 ;
128 [label="X[19] <= 41.0\ngini = 0.455\nsamples = 20\nvalue = [7, 13]"] ;
127 -> 128 ;
129 [label="X[1] <= -538.5\ngini = 0.3047\nsamples = 16\nvalue = [3, 13]"] ;
128 -> 129 ;
130 [label="X[17] <= 844.5\ngini = 0.2311\nsamples = 15\nvalue = [2, 13]"] ;
129 -> 130 ;
131 [label="gini = 0.0\nsamples = 1\nvalue = [1, 0]"] ;
130 -> 131 ;
132 [label="X[19] <= 36.0\ngini = 0.1327\nsamples = 14\nvalue = [1, 13]"] ;
130 -> 132 ;
133 [label="gini = 0.0\nsamples = 12\nvalue = [0, 12]"] ;
132 -> 133 ;
134 [label="X[16] <= 1637.0\ngini = 0.5\nsamples = 2\nvalue = [1, 1]"] ;
132 -> 134 ;
135 [label="gini = 0.0\nsamples = 1\nvalue = [0, 1]"] ;
134 -> 135 ;
136 [label="gini = 0.0\nsamples = 1\nvalue = [1, 0]"] ;
134 -> 136 ;
137 [label="gini = 0.0\nsamples = 1\nvalue = [1, 0]"] ;
129 -> 137 ;
138 [label="gini = 0.0\nsamples = 4\nvalue = [4, 0]"] ;
128 -> 138 ;
139 [label="X[1] <= 28.5\ngini = 0.4879\nsamples = 225\nvalue = [130, 95]"] ;
127 -> 139 ;
140 [label="X[16] <= 16124.5\ngini = 0.4844\nsamples = 221\nvalue = [130, 91]"] ;
139 -> 140 ;
141 [label="X[17] <= 4473.5\ngini = 0.4814\nsamples = 218\nvalue = [130, 88]"] ;
140 -> 141 ;
142 [label="X[16] <= 3426.5\ngini = 0.4931\nsamples = 170\nvalue = [95, 75]"] ;
141 -> 142 ;
143 [label="X[18] <= 276.0\ngini = 0.48\nsamples = 140\nvalue = [84, 56]"] ;
142 -> 143 ;
144 [label="X[18] <= 225.0\ngini = 0.375\nsamples = 8\nvalue = [2, 6]"] ;
143 -> 144 ;
145 [label="X[16] <= 2079.5\ngini = 0.4444\nsamples = 3\nvalue = [2, 1]"] ;
144 -> 145 ;
146 [label="gini = 0.0\nsamples = 2\nvalue = [2, 0]"] ;
145 -> 146 ;
147 [label="gini = 0.0\nsamples = 1\nvalue = [0, 1]"] ;
145 -> 147 ;
148 [label="gini = 0.0\nsamples = 5\nvalue = [0, 5]"] ;
144 -> 148 ;
149 [label="X[18] <= 338.0\ngini = 0.4706\nsamples = 132\nvalue = [82, 50]"] ;
143 -> 149 ;
150 [label="gini = 0.0\nsamples = 8\nvalue = [8, 0]"] ;
149 -> 150 ;
151 [label="X[18] <= 371.0\ngini = 0.4813\nsamples = 124\nvalue = [74, 50]"] ;
149 -> 151 ;
152 [label="X[16] <= 1480.0\ngini = 0.4297\nsamples = 16\nvalue = [5, 11]"] ;
151 -> 152 ;
153 [label="gini = 0.0\nsamples = 2\nvalue = [2, 0]"] ;
152 -> 153 ;
154 [label="X[19] <= 12.5\ngini = 0.3367\nsamples = 14\nvalue = [3, 11]"] ;
152 -> 154 ;
155 [label="gini = 0.0\nsamples = 1\nvalue = [1, 0]"] ;
154 -> 155 ;
156 [label="X[17] <= 2557.0\ngini = 0.2604\nsamples = 13\nvalue = [2, 11]"] ;
154 -> 156 ;
157 [label="X[19] <= 24.0\ngini = 0.1653\nsamples = 11\nvalue = [1, 10]"] ;
156 -> 157 ;
158 [label="X[19] <= 20.0\ngini = 0.4444\nsamples = 3\nvalue = [1, 2]"] ;
157 -> 158 ;
159 [label="gini = 0.0\nsamples = 2\nvalue = [0, 2]"] ;
158 -> 159 ;
160 [label="gini = 0.0\nsamples = 1\nvalue = [1, 0]"] ;
158 -> 160 ;
161 [label="gini = 0.0\nsamples = 8\nvalue = [0, 8]"] ;
157 -> 161 ;
162 [label="X[19] <= 44.5\ngini = 0.5\nsamples = 2\nvalue = [1, 1]"] ;
156 -> 162 ;
163 [label="gini = 0.0\nsamples = 1\nvalue = [0, 1]"] ;
162 -> 163 ;
164 [label="gini = 0.0\nsamples = 1\nvalue = [1, 0]"] ;
162 -> 164 ;
165 [label="X[17] <= 4311.5\ngini = 0.4614\nsamples = 108\nvalue = [69, 39]"] ;
151 -> 165 ;
166 [label="X[19] <= 5.5\ngini = 0.4544\nsamples = 106\nvalue = [69, 37]"] ;
165 -> 166 ;
167 [label="X[16] <= 2187.5\ngini = 0.375\nsamples = 4\nvalue = [1, 3]"] ;
166 -> 167 ;
168 [label="gini = 0.0\nsamples = 3\nvalue = [0, 3]"] ;
167 -> 168 ;
169 [label="gini = 0.0\nsamples = 1\nvalue = [1, 0]"] ;
167 -> 169 ;
170 [label="X[19] <= 79.5\ngini = 0.4444\nsamples = 102\nvalue = [68, 34]"] ;
166 -> 170 ;
171 [label="X[19] <= 59.5\ngini = 0.4267\nsamples = 94\nvalue = [65, 29]"] ;
170 -> 171 ;
172 [label="X[3] <= 33.5\ngini = 0.4497\nsamples = 82\nvalue = [54, 28]"] ;
171 -> 172 ;
173 [label="X[19] <= 42.5\ngini = 0.4602\nsamples = 78\nvalue = [50, 28]"] ;
172 -> 173 ;
174 [label="X[0] <= 1.5\ngini = 0.4339\nsamples = 66\nvalue = [45, 21]"] ;
173 -> 174 ;
175 [label="X[5] <= -519.0\ngini = 0.48\nsamples = 35\nvalue = [21, 14]"] ;
174 -> 175 ;
176 [label="X[16] <= 1690.0\ngini = 0.4628\nsamples = 33\nvalue = [21, 12]"] ;
175 -> 176 ;
177 [label="X[17] <= 1542.5\ngini = 0.375\nsamples = 4\nvalue = [1, 3]"] ;
176 -> 177 ;
178 [label="gini = 0.0\nsamples = 1\nvalue = [1, 0]"] ;
177 -> 178 ;
179 [label="gini = 0.0\nsamples = 3\nvalue = [0, 3]"] ;
177 -> 179 ;
180 [label="X[17] <= 1574.0\ngini = 0.4281\nsamples = 29\nvalue = [20, 9]"] ;
176 -> 180 ;
181 [label="X[18] <= 484.0\ngini = 0.4898\nsamples = 7\nvalue = [3, 4]"] ;
180 -> 181 ;
182 [label="X[18] <= 413.5\ngini = 0.375\nsamples = 4\nvalue = [3, 1]"] ;
181 -> 182 ;
183 [label="gini = 0.0\nsamples = 1\nvalue = [0, 1]"] ;
182 -> 183 ;
184 [label="gini = 0.0\nsamples = 3\nvalue = [3, 0]"] ;
182 -> 184 ;
185 [label="gini = 0.0\nsamples = 3\nvalue = [0, 3]"] ;
181 -> 185 ;
186 [label="X[17] <= 1781.0\ngini = 0.3512\nsamples = 22\nvalue = [17, 5]"] ;
180 -> 186 ;
187 [label="gini = 0.0\nsamples = 6\nvalue = [6, 0]"] ;
186 -> 187 ;
188 [label="X[17] <= 2347.0\ngini = 0.4297\nsamples = 16\nvalue = [11, 5]"] ;
186 -> 188 ;
189 [label="X[17] <= 2014.5\ngini = 0.4898\nsamples = 7\nvalue = [3, 4]"] ;
188 -> 189 ;
190 [label="X[18] <= 446.0\ngini = 0.375\nsamples = 4\nvalue = [3, 1]"] ;
189 -> 190 ;
191 [label="gini = 0.0\nsamples = 1\nvalue = [0, 1]"] ;
190 -> 191 ;
192 [label="gini = 0.0\nsamples = 3\nvalue = [3, 0]"] ;
190 -> 192 ;
193 [label="gini = 0.0\nsamples = 3\nvalue = [0, 3]"] ;
189 -> 193 ;
194 [label="X[18] <= 542.5\ngini = 0.1975\nsamples = 9\nvalue = [8, 1]"] ;
188 -> 194 ;
195 [label="X[18] <= 443.5\ngini = 0.4444\nsamples = 3\nvalue = [2, 1]"] ;
194 -> 195 ;
196 [label="gini = 0.0\nsamples = 2\nvalue = [2, 0]"] ;
195 -> 196 ;
197 [label="gini = 0.0\nsamples = 1\nvalue = [0, 1]"] ;
195 -> 197 ;
198 [label="gini = 0.0\nsamples = 6\nvalue = [6, 0]"] ;
194 -> 198 ;
199 [label="gini = 0.0\nsamples = 2\nvalue = [0, 2]"] ;
175 -> 199 ;
200 [label="X[18] <= 753.0\ngini = 0.3496\nsamples = 31\nvalue = [24, 7]"] ;
174 -> 200 ;
201 [label="X[16] <= 3287.0\ngini = 0.32\nsamples = 30\nvalue = [24, 6]"] ;
200 -> 201 ;
202 [label="X[18] <= 460.5\ngini = 0.2854\nsamples = 29\nvalue = [24, 5]"] ;
201 -> 202 ;
203 [label="X[19] <= 21.5\ngini = 0.4628\nsamples = 11\nvalue = [7, 4]"] ;
202 -> 203 ;
204 [label="X[17] <= 3221.5\ngini = 0.375\nsamples = 4\nvalue = [1, 3]"] ;
203 -> 204 ;
205 [label="gini = 0.0\nsamples = 3\nvalue = [0, 3]"] ;
204 -> 205 ;
206 [label="gini = 0.0\nsamples = 1\nvalue = [1, 0]"] ;
204 -> 206 ;
207 [label="X[18] <= 452.5\ngini = 0.2449\nsamples = 7\nvalue = [6, 1]"] ;
203 -> 207 ;
208 [label="gini = 0.0\nsamples = 6\nvalue = [6, 0]"] ;
207 -> 208 ;
209 [label="gini = 0.0\nsamples = 1\nvalue = [0, 1]"] ;
207 -> 209 ;
210 [label="X[18] <= 667.5\ngini = 0.1049\nsamples = 18\nvalue = [17, 1]"] ;
202 -> 210 ;
211 [label="gini = 0.0\nsamples = 14\nvalue = [14, 0]"] ;
210 -> 211 ;
212 [label="X[19] <= 21.5\ngini = 0.375\nsamples = 4\nvalue = [3, 1]"] ;
210 -> 212 ;
213 [label="gini = 0.0\nsamples = 3\nvalue = [3, 0]"] ;
212 -> 213 ;
214 [label="gini = 0.0\nsamples = 1\nvalue = [0, 1]"] ;
212 -> 214 ;
215 [label="gini = 0.0\nsamples = 1\nvalue = [0, 1]"] ;
201 -> 215 ;
216 [label="gini = 0.0\nsamples = 1\nvalue = [0, 1]"] ;
200 -> 216 ;
217 [label="X[16] <= 1716.5\ngini = 0.4861\nsamples = 12\nvalue = [5, 7]"] ;
173 -> 217 ;
218 [label="gini = 0.0\nsamples = 3\nvalue = [3, 0]"] ;
217 -> 218 ;
219 [label="X[18] <= 392.5\ngini = 0.3457\nsamples = 9\nvalue = [2, 7]"] ;
217 -> 219 ;
220 [label="gini = 0.0\nsamples = 1\nvalue = [1, 0]"] ;
219 -> 220 ;
221 [label="X[17] <= 2030.0\ngini = 0.2188\nsamples = 8\nvalue = [1, 7]"] ;
219 -> 221 ;
222 [label="X[5] <= -517.0\ngini = 0.5\nsamples = 2\nvalue = [1, 1]"] ;
221 -> 222 ;
223 [label="gini = 0.0\nsamples = 1\nvalue = [1, 0]"] ;
222 -> 223 ;
224 [label="gini = 0.0\nsamples = 1\nvalue = [0, 1]"] ;
222 -> 224 ;
225 [label="gini = 0.0\nsamples = 6\nvalue = [0, 6]"] ;
221 -> 225 ;
226 [label="gini = 0.0\nsamples = 4\nvalue = [4, 0]"] ;
172 -> 226 ;
227 [label="X[18] <= 690.0\ngini = 0.1528\nsamples = 12\nvalue = [11, 1]"] ;
171 -> 227 ;
228 [label="gini = 0.0\nsamples = 8\nvalue = [8, 0]"] ;
227 -> 228 ;
229 [label="X[0] <= 1.5\ngini = 0.375\nsamples = 4\nvalue = [3, 1]"] ;
227 -> 229 ;
230 [label="gini = 0.0\nsamples = 3\nvalue = [3, 0]"] ;
229 -> 230 ;
231 [label="gini = 0.0\nsamples = 1\nvalue = [0, 1]"] ;
229 -> 231 ;
232 [label="X[17] <= 2901.5\ngini = 0.4688\nsamples = 8\nvalue = [3, 5]"] ;
170 -> 232 ;
233 [label="gini = 0.0\nsamples = 4\nvalue = [0, 4]"] ;
232 -> 233 ;
234 [label="X[16] <= 1436.0\ngini = 0.375\nsamples = 4\nvalue = [3, 1]"] ;
232 -> 234 ;
235 [label="gini = 0.0\nsamples = 1\nvalue = [0, 1]"] ;
234 -> 235 ;
236 [label="gini = 0.0\nsamples = 3\nvalue = [3, 0]"] ;
234 -> 236 ;
237 [label="gini = 0.0\nsamples = 2\nvalue = [0, 2]"] ;
165 -> 237 ;
238 [label="X[18] <= 345.0\ngini = 0.4644\nsamples = 30\nvalue = [11, 19]"] ;
142 -> 238 ;
239 [label="gini = 0.0\nsamples = 2\nvalue = [2, 0]"] ;
238 -> 239 ;
240 [label="X[16] <= 3896.0\ngini = 0.4362\nsamples = 28\nvalue = [9, 19]"] ;
238 -> 240 ;
241 [label="X[19] <= 35.5\ngini = 0.18\nsamples = 10\nvalue = [1, 9]"] ;
240 -> 241 ;
242 [label="X[17] <= 3158.0\ngini = 0.4444\nsamples = 3\nvalue = [1, 2]"] ;
241 -> 242 ;
243 [label="gini = 0.0\nsamples = 2\nvalue = [0, 2]"] ;
242 -> 243 ;
244 [label="gini = 0.0\nsamples = 1\nvalue = [1, 0]"] ;
242 -> 244 ;
245 [label="gini = 0.0\nsamples = 7\nvalue = [0, 7]"] ;
241 -> 245 ;
246 [label="X[19] <= 34.5\ngini = 0.4938\nsamples = 18\nvalue = [8, 10]"] ;
240 -> 246 ;
247 [label="X[16] <= 4153.5\ngini = 0.375\nsamples = 8\nvalue = [2, 6]"] ;
246 -> 247 ;
248 [label="X[16] <= 4037.0\ngini = 0.4444\nsamples = 3\nvalue = [2, 1]"] ;
247 -> 248 ;
249 [label="gini = 0.0\nsamples = 1\nvalue = [0, 1]"] ;
248 -> 249 ;
250 [label="gini = 0.0\nsamples = 2\nvalue = [2, 0]"] ;
248 -> 250 ;
251 [label="gini = 0.0\nsamples = 5\nvalue = [0, 5]"] ;
247 -> 251 ;
252 [label="X[0] <= 1.5\ngini = 0.48\nsamples = 10\nvalue = [6, 4]"] ;
246 -> 252 ;
253 [label="gini = 0.0\nsamples = 4\nvalue = [4, 0]"] ;
252 -> 253 ;
254 [label="X[6] <= -512.0\ngini = 0.4444\nsamples = 6\nvalue = [2, 4]"] ;
252 -> 254 ;
255 [label="X[16] <= 5600.0\ngini = 0.32\nsamples = 5\nvalue = [1, 4]"] ;
254 -> 255 ;
256 [label="gini = 0.0\nsamples = 4\nvalue = [0, 4]"] ;
255 -> 256 ;
257 [label="gini = 0.0\nsamples = 1\nvalue = [1, 0]"] ;
255 -> 257 ;
258 [label="gini = 0.0\nsamples = 1\nvalue = [1, 0]"] ;
254 -> 258 ;
259 [label="X[18] <= 825.5\ngini = 0.395\nsamples = 48\nvalue = [35, 13]"] ;
141 -> 259 ;
260 [label="gini = 0.0\nsamples = 10\nvalue = [10, 0]"] ;
259 -> 260 ;
261 [label="X[17] <= 4830.0\ngini = 0.4501\nsamples = 38\nvalue = [25, 13]"] ;
259 -> 261 ;
262 [label="X[16] <= 3297.0\ngini = 0.375\nsamples = 4\nvalue = [1, 3]"] ;
261 -> 262 ;
263 [label="gini = 0.0\nsamples = 3\nvalue = [0, 3]"] ;
262 -> 263 ;
264 [label="gini = 0.0\nsamples = 1\nvalue = [1, 0]"] ;
262 -> 264 ;
265 [label="X[16] <= 4247.0\ngini = 0.4152\nsamples = 34\nvalue = [24, 10]"] ;
261 -> 265 ;
266 [label="gini = 0.0\nsamples = 8\nvalue = [8, 0]"] ;
265 -> 266 ;
267 [label="X[4] <= 76.0\ngini = 0.4734\nsamples = 26\nvalue = [16, 10]"] ;
265 -> 267 ;
268 [label="X[17] <= 6961.0\ngini = 0.4082\nsamples = 21\nvalue = [15, 6]"] ;
267 -> 268 ;
269 [label="X[19] <= 52.5\ngini = 0.5\nsamples = 10\nvalue = [5, 5]"] ;
268 -> 269 ;
270 [label="X[19] <= 40.5\ngini = 0.4688\nsamples = 8\nvalue = [3, 5]"] ;
269 -> 270 ;
271 [label="X[0] <= 1.5\ngini = 0.48\nsamples = 5\nvalue = [3, 2]"] ;
270 -> 271 ;
272 [label="gini = 0.0\nsamples = 2\nvalue = [2, 0]"] ;
271 -> 272 ;
273 [label="X[17] <= 6166.0\ngini = 0.4444\nsamples = 3\nvalue = [1, 2]"] ;
271 -> 273 ;
274 [label="gini = 0.0\nsamples = 2\nvalue = [0, 2]"] ;
273 -> 274 ;
275 [label="gini = 0.0\nsamples = 1\nvalue = [1, 0]"] ;
273 -> 275 ;
276 [label="gini = 0.0\nsamples = 3\nvalue = [0, 3]"] ;
270 -> 276 ;
277 [label="gini = 0.0\nsamples = 2\nvalue = [2, 0]"] ;
269 -> 277 ;
278 [label="X[16] <= 6116.5\ngini = 0.1653\nsamples = 11\nvalue = [10, 1]"] ;
268 -> 278 ;
279 [label="X[18] <= 1745.0\ngini = 0.375\nsamples = 4\nvalue = [3, 1]"] ;
278 -> 279 ;
280 [label="gini = 0.0\nsamples = 3\nvalue = [3, 0]"] ;
279 -> 280 ;
281 [label="gini = 0.0\nsamples = 1\nvalue = [0, 1]"] ;
279 -> 281 ;
282 [label="gini = 0.0\nsamples = 7\nvalue = [7, 0]"] ;
278 -> 282 ;
283 [label="X[6] <= 93.5\ngini = 0.32\nsamples = 5\nvalue = [1, 4]"] ;
267 -> 283 ;
284 [label="gini = 0.0\nsamples = 4\nvalue = [0, 4]"] ;
283 -> 284 ;
285 [label="gini = 0.0\nsamples = 1\nvalue = [1, 0]"] ;
283 -> 285 ;
286 [label="gini = 0.0\nsamples = 3\nvalue = [0, 3]"] ;
140 -> 286 ;
287 [label="gini = 0.0\nsamples = 4\nvalue = [0, 4]"] ;
139 -> 287 ;
288 [label="X[18] <= 773.5\ngini = 0.4949\nsamples = 89\nvalue = [40, 49]"] ;
106 -> 288 ;
289 [label="X[18] <= 506.5\ngini = 0.4982\nsamples = 66\nvalue = [35, 31]"] ;
288 -> 289 ;
290 [label="X[19] <= 76.0\ngini = 0.4819\nsamples = 42\nvalue = [17, 25]"] ;
289 -> 290 ;
291 [label="X[3] <= 40.0\ngini = 0.4501\nsamples = 38\nvalue = [13, 25]"] ;
290 -> 291 ;
292 [label="X[16] <= 1511.5\ngini = 0.4082\nsamples = 35\nvalue = [10, 25]"] ;
291 -> 292 ;
293 [label="X[16] <= 1372.5\ngini = 0.5\nsamples = 14\nvalue = [7, 7]"] ;
292 -> 293 ;
294 [label="X[16] <= 1206.0\ngini = 0.42\nsamples = 10\nvalue = [3, 7]"] ;
293 -> 294 ;
295 [label="X[19] <= 41.0\ngini = 0.5\nsamples = 6\nvalue = [3, 3]"] ;
294 -> 295 ;
296 [label="X[3] <= 29.5\ngini = 0.375\nsamples = 4\nvalue = [3, 1]"] ;
295 -> 296 ;
297 [label="gini = 0.0\nsamples = 3\nvalue = [3, 0]"] ;
296 -> 297 ;
298 [label="gini = 0.0\nsamples = 1\nvalue = [0, 1]"] ;
296 -> 298 ;
299 [label="gini = 0.0\nsamples = 2\nvalue = [0, 2]"] ;
295 -> 299 ;
300 [label="gini = 0.0\nsamples = 4\nvalue = [0, 4]"] ;
294 -> 300 ;
301 [label="gini = 0.0\nsamples = 4\nvalue = [4, 0]"] ;
293 -> 301 ;
302 [label="X[16] <= 3699.5\ngini = 0.2449\nsamples = 21\nvalue = [3, 18]"] ;
292 -> 302 ;
303 [label="X[18] <= 411.5\ngini = 0.18\nsamples = 20\nvalue = [2, 18]"] ;
302 -> 303 ;
304 [label="gini = 0.0\nsamples = 12\nvalue = [0, 12]"] ;
303 -> 304 ;
305 [label="X[18] <= 446.5\ngini = 0.375\nsamples = 8\nvalue = [2, 6]"] ;
303 -> 305 ;
306 [label="gini = 0.0\nsamples = 2\nvalue = [2, 0]"] ;
305 -> 306 ;
307 [label="gini = 0.0\nsamples = 6\nvalue = [0, 6]"] ;
305 -> 307 ;
308 [label="gini = 0.0\nsamples = 1\nvalue = [1, 0]"] ;
302 -> 308 ;
309 [label="gini = 0.0\nsamples = 3\nvalue = [3, 0]"] ;
291 -> 309 ;
310 [label="gini = 0.0\nsamples = 4\nvalue = [4, 0]"] ;
290 -> 310 ;
311 [label="X[16] <= 7108.0\ngini = 0.375\nsamples = 24\nvalue = [18, 6]"] ;
289 -> 311 ;
312 [label="X[16] <= 2331.5\ngini = 0.255\nsamples = 20\nvalue = [17, 3]"] ;
311 -> 312 ;
313 [label="X[15] <= 26.5\ngini = 0.4444\nsamples = 3\nvalue = [1, 2]"] ;
312 -> 313 ;
314 [label="gini = 0.0\nsamples = 1\nvalue = [1, 0]"] ;
313 -> 314 ;
315 [label="gini = 0.0\nsamples = 2\nvalue = [0, 2]"] ;
313 -> 315 ;
316 [label="X[19] <= 75.0\ngini = 0.1107\nsamples = 17\nvalue = [16, 1]"] ;
312 -> 316 ;
317 [label="gini = 0.0\nsamples = 15\nvalue = [15, 0]"] ;
316 -> 317 ;
318 [label="X[14] <= 10.5\ngini = 0.5\nsamples = 2\nvalue = [1, 1]"] ;
316 -> 318 ;
319 [label="gini = 0.0\nsamples = 1\nvalue = [0, 1]"] ;
318 -> 319 ;
320 [label="gini = 0.0\nsamples = 1\nvalue = [1, 0]"] ;
318 -> 320 ;
321 [label="X[17] <= 3767.0\ngini = 0.375\nsamples = 4\nvalue = [1, 3]"] ;
311 -> 321 ;
322 [label="gini = 0.0\nsamples = 1\nvalue = [1, 0]"] ;
321 -> 322 ;
323 [label="gini = 0.0\nsamples = 3\nvalue = [0, 3]"] ;
321 -> 323 ;
324 [label="X[18] <= 1863.0\ngini = 0.3403\nsamples = 23\nvalue = [5, 18]"] ;
288 -> 324 ;
325 [label="X[17] <= 1649.5\ngini = 0.1884\nsamples = 19\nvalue = [2, 17]"] ;
324 -> 325 ;
326 [label="gini = 0.0\nsamples = 1\nvalue = [1, 0]"] ;
325 -> 326 ;
327 [label="X[16] <= 5847.5\ngini = 0.1049\nsamples = 18\nvalue = [1, 17]"] ;
325 -> 327 ;
328 [label="gini = 0.0\nsamples = 15\nvalue = [0, 15]"] ;
327 -> 328 ;
329 [label="X[18] <= 984.0\ngini = 0.4444\nsamples = 3\nvalue = [1, 2]"] ;
327 -> 329 ;
330 [label="gini = 0.0\nsamples = 1\nvalue = [1, 0]"] ;
329 -> 330 ;
331 [label="gini = 0.0\nsamples = 2\nvalue = [0, 2]"] ;
329 -> 331 ;
332 [label="X[2] <= -547.5\ngini = 0.375\nsamples = 4\nvalue = [3, 1]"] ;
324 -> 332 ;
333 [label="gini = 0.0\nsamples = 3\nvalue = [3, 0]"] ;
332 -> 333 ;
334 [label="gini = 0.0\nsamples = 1\nvalue = [0, 1]"] ;
332 -> 334 ;
335 [label="X[9] <= 30.5\ngini = 0.4102\nsamples = 413\nvalue = [294, 119]"] ;
105 -> 335 ;
336 [label="X[17] <= 934.0\ngini = 0.3174\nsamples = 182\nvalue = [146, 36]"] ;
335 -> 336 ;
337 [label="gini = 0.0\nsamples = 3\nvalue = [0, 3]"] ;
336 -> 337 ;
338 [label="X[18] <= 1215.0\ngini = 0.3007\nsamples = 179\nvalue = [146, 33]"] ;
336 -> 338 ;
339 [label="X[6] <= 97.5\ngini = 0.2659\nsamples = 152\nvalue = [128, 24]"] ;
338 -> 339 ;
340 [label="X[18] <= 276.5\ngini = 0.2582\nsamples = 151\nvalue = [128, 23]"] ;
339 -> 340 ;
341 [label="X[18] <= 269.5\ngini = 0.4152\nsamples = 17\nvalue = [12, 5]"] ;
340 -> 341 ;
342 [label="X[6] <= 88.0\ngini = 0.2449\nsamples = 14\nvalue = [12, 2]"] ;
341 -> 342 ;
343 [label="X[19] <= 15.5\ngini = 0.142\nsamples = 13\nvalue = [12, 1]"] ;
342 -> 343 ;
344 [label="X[14] <= -551.5\ngini = 0.4444\nsamples = 3\nvalue = [2, 1]"] ;
343 -> 344 ;
345 [label="gini = 0.0\nsamples = 1\nvalue = [0, 1]"] ;
344 -> 345 ;
346 [label="gini = 0.0\nsamples = 2\nvalue = [2, 0]"] ;
344 -> 346 ;
347 [label="gini = 0.0\nsamples = 10\nvalue = [10, 0]"] ;
343 -> 347 ;
348 [label="gini = 0.0\nsamples = 1\nvalue = [0, 1]"] ;
342 -> 348 ;
349 [label="gini = 0.0\nsamples = 3\nvalue = [0, 3]"] ;
341 -> 349 ;
350 [label="X[1] <= 28.5\ngini = 0.2326\nsamples = 134\nvalue = [116, 18]"] ;
340 -> 350 ;
351 [label="X[3] <= 31.5\ngini = 0.1944\nsamples = 110\nvalue = [98, 12]"] ;
350 -> 351 ;
352 [label="X[13] <= 27.5\ngini = 0.268\nsamples = 69\nvalue = [58, 11]"] ;
351 -> 352 ;
353 [label="X[13] <= -551.5\ngini = 0.2326\nsamples = 67\nvalue = [58, 9]"] ;
352 -> 353 ;
354 [label="X[19] <= 78.0\ngini = 0.3418\nsamples = 32\nvalue = [25, 7]"] ;
353 -> 354 ;
355 [label="X[17] <= 2802.0\ngini = 0.2778\nsamples = 30\nvalue = [25, 5]"] ;
354 -> 355 ;
356 [label="X[18] <= 516.0\ngini = 0.4012\nsamples = 18\nvalue = [13, 5]"] ;
355 -> 356 ;
357 [label="X[16] <= 1718.5\ngini = 0.3047\nsamples = 16\nvalue = [13, 3]"] ;
356 -> 357 ;
358 [label="X[18] <= 383.5\ngini = 0.4898\nsamples = 7\nvalue = [4, 3]"] ;
357 -> 358 ;
359 [label="X[17] <= 2104.0\ngini = 0.32\nsamples = 5\nvalue = [4, 1]"] ;
358 -> 359 ;
360 [label="gini = 0.0\nsamples = 4\nvalue = [4, 0]"] ;
359 -> 360 ;
361 [label="gini = 0.0\nsamples = 1\nvalue = [0, 1]"] ;
359 -> 361 ;
362 [label="gini = 0.0\nsamples = 2\nvalue = [0, 2]"] ;
358 -> 362 ;
363 [label="gini = 0.0\nsamples = 9\nvalue = [9, 0]"] ;
357 -> 363 ;
364 [label="gini = 0.0\nsamples = 2\nvalue = [0, 2]"] ;
356 -> 364 ;
365 [label="gini = 0.0\nsamples = 12\nvalue = [12, 0]"] ;
355 -> 365 ;
366 [label="gini = 0.0\nsamples = 2\nvalue = [0, 2]"] ;
354 -> 366 ;
367 [label="X[16] <= 2779.5\ngini = 0.1078\nsamples = 35\nvalue = [33, 2]"] ;
353 -> 367 ;
368 [label="X[16] <= 2583.5\ngini = 0.2449\nsamples = 14\nvalue = [12, 2]"] ;
367 -> 368 ;
369 [label="gini = 0.0\nsamples = 12\nvalue = [12, 0]"] ;
368 -> 369 ;
370 [label="gini = 0.0\nsamples = 2\nvalue = [0, 2]"] ;
368 -> 370 ;
371 [label="gini = 0.0\nsamples = 21\nvalue = [21, 0]"] ;
367 -> 371 ;
372 [label="gini = 0.0\nsamples = 2\nvalue = [0, 2]"] ;
352 -> 372 ;
373 [label="X[19] <= 63.0\ngini = 0.0476\nsamples = 41\nvalue = [40, 1]"] ;
351 -> 373 ;
374 [label="gini = 0.0\nsamples = 31\nvalue = [31, 0]"] ;
373 -> 374 ;
375 [label="X[19] <= 65.5\ngini = 0.18\nsamples = 10\nvalue = [9, 1]"] ;
373 -> 375 ;
376 [label="gini = 0.0\nsamples = 1\nvalue = [0, 1]"] ;
375 -> 376 ;
377 [label="gini = 0.0\nsamples = 9\nvalue = [9, 0]"] ;
375 -> 377 ;
378 [label="X[5] <= 77.0\ngini = 0.375\nsamples = 24\nvalue = [18, 6]"] ;
350 -> 378 ;
379 [label="X[19] <= 17.5\ngini = 0.2975\nsamples = 22\nvalue = [18, 4]"] ;
378 -> 379 ;
380 [label="gini = 0.0\nsamples = 1\nvalue = [0, 1]"] ;
379 -> 380 ;
381 [label="X[19] <= 51.5\ngini = 0.2449\nsamples = 21\nvalue = [18, 3]"] ;
379 -> 381 ;
382 [label="gini = 0.0\nsamples = 14\nvalue = [14, 0]"] ;
381 -> 382 ;
383 [label="X[7] <= 20.5\ngini = 0.4898\nsamples = 7\nvalue = [4, 3]"] ;
381 -> 383 ;
384 [label="gini = 0.0\nsamples = 4\nvalue = [4, 0]"] ;
383 -> 384 ;
385 [label="gini = 0.0\nsamples = 3\nvalue = [0, 3]"] ;
383 -> 385 ;
386 [label="gini = 0.0\nsamples = 2\nvalue = [0, 2]"] ;
378 -> 386 ;
387 [label="gini = 0.0\nsamples = 1\nvalue = [0, 1]"] ;
339 -> 387 ;
388 [label="X[19] <= 36.5\ngini = 0.4444\nsamples = 27\nvalue = [18, 9]"] ;
338 -> 388 ;
389 [label="X[2] <= 15.5\ngini = 0.2778\nsamples = 6\nvalue = [1, 5]"] ;
388 -> 389 ;
390 [label="X[18] <= 1794.5\ngini = 0.5\nsamples = 2\nvalue = [1, 1]"] ;
389 -> 390 ;
391 [label="gini = 0.0\nsamples = 1\nvalue = [1, 0]"] ;
390 -> 391 ;
392 [label="gini = 0.0\nsamples = 1\nvalue = [0, 1]"] ;
390 -> 392 ;
393 [label="gini = 0.0\nsamples = 4\nvalue = [0, 4]"] ;
389 -> 393 ;
394 [label="X[8] <= 14.5\ngini = 0.3084\nsamples = 21\nvalue = [17, 4]"] ;
388 -> 394 ;
395 [label="gini = 0.0\nsamples = 14\nvalue = [14, 0]"] ;
394 -> 395 ;
396 [label="X[5] <= 68.5\ngini = 0.4898\nsamples = 7\nvalue = [3, 4]"] ;
394 -> 396 ;
397 [label="gini = 0.0\nsamples = 4\nvalue = [0, 4]"] ;
396 -> 397 ;
398 [label="gini = 0.0\nsamples = 3\nvalue = [3, 0]"] ;
396 -> 398 ;
399 [label="X[13] <= 29.5\ngini = 0.4604\nsamples = 231\nvalue = [148, 83]"] ;
335 -> 399 ;
400 [label="X[18] <= 725.5\ngini = 0.4787\nsamples = 194\nvalue = [117, 77]"] ;
399 -> 400 ;
401 [label="X[17] <= 2610.5\ngini = 0.4132\nsamples = 96\nvalue = [68, 28]"] ;
400 -> 401 ;
402 [label="X[17] <= 2547.5\ngini = 0.4721\nsamples = 55\nvalue = [34, 21]"] ;
401 -> 402 ;
403 [label="X[18] <= 260.5\ngini = 0.4444\nsamples = 51\nvalue = [34, 17]"] ;
402 -> 403 ;
404 [label="gini = 0.0\nsamples = 9\nvalue = [9, 0]"] ;
403 -> 404 ;
405 [label="X[16] <= 1582.5\ngini = 0.4819\nsamples = 42\nvalue = [25, 17]"] ;
403 -> 405 ;
406 [label="X[18] <= 364.5\ngini = 0.4444\nsamples = 15\nvalue = [5, 10]"] ;
405 -> 406 ;
407 [label="X[18] <= 305.5\ngini = 0.4938\nsamples = 9\nvalue = [5, 4]"] ;
406 -> 407 ;
408 [label="gini = 0.0\nsamples = 3\nvalue = [0, 3]"] ;
407 -> 408 ;
409 [label="X[6] <= 94.5\ngini = 0.2778\nsamples = 6\nvalue = [5, 1]"] ;
407 -> 409 ;
410 [label="gini = 0.0\nsamples = 5\nvalue = [5, 0]"] ;
409 -> 410 ;
411 [label="gini = 0.0\nsamples = 1\nvalue = [0, 1]"] ;
409 -> 411 ;
412 [label="gini = 0.0\nsamples = 6\nvalue = [0, 6]"] ;
406 -> 412 ;
413 [label="X[14] <= 10.5\ngini = 0.3841\nsamples = 27\nvalue = [20, 7]"] ;
405 -> 413 ;
414 [label="gini = 0.0\nsamples = 10\nvalue = [10, 0]"] ;
413 -> 414 ;
415 [label="X[16] <= 3304.5\ngini = 0.4844\nsamples = 17\nvalue = [10, 7]"] ;
413 -> 415 ;
416 [label="X[8] <= 18.5\ngini = 0.4082\nsamples = 14\nvalue = [10, 4]"] ;
415 -> 416 ;
417 [label="X[17] <= 1984.0\ngini = 0.5\nsamples = 8\nvalue = [4, 4]"] ;
416 -> 417 ;
418 [label="gini = 0.0\nsamples = 3\nvalue = [3, 0]"] ;
417 -> 418 ;
419 [label="X[15] <= 35.0\ngini = 0.32\nsamples = 5\nvalue = [1, 4]"] ;
417 -> 419 ;
420 [label="gini = 0.0\nsamples = 4\nvalue = [0, 4]"] ;
419 -> 420 ;
421 [label="gini = 0.0\nsamples = 1\nvalue = [1, 0]"] ;
419 -> 421 ;
422 [label="gini = 0.0\nsamples = 6\nvalue = [6, 0]"] ;
416 -> 422 ;
423 [label="gini = 0.0\nsamples = 3\nvalue = [0, 3]"] ;
415 -> 423 ;
424 [label="gini = 0.0\nsamples = 4\nvalue = [0, 4]"] ;
402 -> 424 ;
425 [label="X[2] <= 7.5\ngini = 0.2832\nsamples = 41\nvalue = [34, 7]"] ;
401 -> 425 ;
426 [label="X[18] <= 656.0\ngini = 0.4444\nsamples = 3\nvalue = [1, 2]"] ;
425 -> 426 ;
427 [label="gini = 0.0\nsamples = 2\nvalue = [0, 2]"] ;
426 -> 427 ;
428 [label="gini = 0.0\nsamples = 1\nvalue = [1, 0]"] ;
426 -> 428 ;
429 [label="X[15] <= 36.0\ngini = 0.2285\nsamples = 38\nvalue = [33, 5]"] ;
425 -> 429 ;
430 [label="X[9] <= 37.5\ngini = 0.1928\nsamples = 37\nvalue = [33, 4]"] ;
429 -> 430 ;
431 [label="X[16] <= 4914.0\ngini = 0.1139\nsamples = 33\nvalue = [31, 2]"] ;
430 -> 431 ;
432 [label="X[16] <= 3420.0\ngini = 0.0624\nsamples = 31\nvalue = [30, 1]"] ;
431 -> 432 ;
433 [label="gini = 0.0\nsamples = 25\nvalue = [25, 0]"] ;
432 -> 433 ;
434 [label="X[14] <= 16.5\ngini = 0.2778\nsamples = 6\nvalue = [5, 1]"] ;
432 -> 434 ;
435 [label="gini = 0.0\nsamples = 5\nvalue = [5, 0]"] ;
434 -> 435 ;
436 [label="gini = 0.0\nsamples = 1\nvalue = [0, 1]"] ;
434 -> 436 ;
437 [label="X[16] <= 6402.5\ngini = 0.5\nsamples = 2\nvalue = [1, 1]"] ;
431 -> 437 ;
438 [label="gini = 0.0\nsamples = 1\nvalue = [0, 1]"] ;
437 -> 438 ;
439 [label="gini = 0.0\nsamples = 1\nvalue = [1, 0]"] ;
437 -> 439 ;
440 [label="X[18] <= 500.0\ngini = 0.5\nsamples = 4\nvalue = [2, 2]"] ;
430 -> 440 ;
441 [label="gini = 0.0\nsamples = 2\nvalue = [0, 2]"] ;
440 -> 441 ;
442 [label="gini = 0.0\nsamples = 2\nvalue = [2, 0]"] ;
440 -> 442 ;
443 [label="gini = 0.0\nsamples = 1\nvalue = [0, 1]"] ;
429 -> 443 ;
444 [label="X[18] <= 899.5\ngini = 0.5\nsamples = 98\nvalue = [49, 49]"] ;
400 -> 444 ;
445 [label="X[5] <= 79.5\ngini = 0.375\nsamples = 24\nvalue = [6, 18]"] ;
444 -> 445 ;
446 [label="X[2] <= 26.0\ngini = 0.2975\nsamples = 22\nvalue = [4, 18]"] ;
445 -> 446 ;
447 [label="X[18] <= 784.5\ngini = 0.2449\nsamples = 21\nvalue = [3, 18]"] ;
446 -> 447 ;
448 [label="X[19] <= 28.0\ngini = 0.48\nsamples = 5\nvalue = [2, 3]"] ;
447 -> 448 ;
449 [label="X[14] <= 17.0\ngini = 0.4444\nsamples = 3\nvalue = [2, 1]"] ;
448 -> 449 ;
450 [label="gini = 0.0\nsamples = 2\nvalue = [2, 0]"] ;
449 -> 450 ;
451 [label="gini = 0.0\nsamples = 1\nvalue = [0, 1]"] ;
449 -> 451 ;
452 [label="gini = 0.0\nsamples = 2\nvalue = [0, 2]"] ;
448 -> 452 ;
453 [label="X[17] <= 6397.0\ngini = 0.1172\nsamples = 16\nvalue = [1, 15]"] ;
447 -> 453 ;
454 [label="gini = 0.0\nsamples = 13\nvalue = [0, 13]"] ;
453 -> 454 ;
455 [label="X[13] <= 21.0\ngini = 0.4444\nsamples = 3\nvalue = [1, 2]"] ;
453 -> 455 ;
456 [label="gini = 0.0\nsamples = 2\nvalue = [0, 2]"] ;
455 -> 456 ;
457 [label="gini = 0.0\nsamples = 1\nvalue = [1, 0]"] ;
455 -> 457 ;
458 [label="gini = 0.0\nsamples = 1\nvalue = [1, 0]"] ;
446 -> 458 ;
459 [label="gini = 0.0\nsamples = 2\nvalue = [2, 0]"] ;
445 -> 459 ;
460 [label="X[17] <= 8906.0\ngini = 0.4869\nsamples = 74\nvalue = [43, 31]"] ;
444 -> 460 ;
461 [label="X[19] <= 56.5\ngini = 0.4994\nsamples = 60\nvalue = [31, 29]"] ;
460 -> 461 ;
462 [label="X[16] <= 9060.5\ngini = 0.4673\nsamples = 43\nvalue = [27, 16]"] ;
461 -> 462 ;
463 [label="X[16] <= 3368.5\ngini = 0.426\nsamples = 39\nvalue = [27, 12]"] ;
462 -> 463 ;
464 [label="gini = 0.0\nsamples = 2\nvalue = [0, 2]"] ;
463 -> 464 ;
465 [label="X[14] <= 20.5\ngini = 0.3944\nsamples = 37\nvalue = [27, 10]"] ;
463 -> 465 ;
466 [label="X[0] <= 1.5\ngini = 0.3527\nsamples = 35\nvalue = [27, 8]"] ;
465 -> 466 ;
467 [label="X[5] <= 70.5\ngini = 0.4922\nsamples = 16\nvalue = [9, 7]"] ;
466 -> 467 ;
468 [label="X[8] <= 16.5\ngini = 0.4861\nsamples = 12\nvalue = [5, 7]"] ;
467 -> 468 ;
469 [label="X[18] <= 1080.0\ngini = 0.4688\nsamples = 8\nvalue = [5, 3]"] ;
468 -> 469 ;
470 [label="X[14] <= -550.0\ngini = 0.375\nsamples = 4\nvalue = [1, 3]"] ;
469 -> 470 ;
471 [label="X[19] <= 38.5\ngini = 0.5\nsamples = 2\nvalue = [1, 1]"] ;
470 -> 471 ;
472 [label="gini = 0.0\nsamples = 1\nvalue = [1, 0]"] ;
471 -> 472 ;
473 [label="gini = 0.0\nsamples = 1\nvalue = [0, 1]"] ;
471 -> 473 ;
474 [label="gini = 0.0\nsamples = 2\nvalue = [0, 2]"] ;
470 -> 474 ;
475 [label="gini = 0.0\nsamples = 4\nvalue = [4, 0]"] ;
469 -> 475 ;
476 [label="gini = 0.0\nsamples = 4\nvalue = [0, 4]"] ;
468 -> 476 ;
477 [label="gini = 0.0\nsamples = 4\nvalue = [4, 0]"] ;
467 -> 477 ;
478 [label="X[18] <= 1488.5\ngini = 0.0997\nsamples = 19\nvalue = [18, 1]"] ;
466 -> 478 ;
479 [label="gini = 0.0\nsamples = 17\nvalue = [17, 0]"] ;
478 -> 479 ;
480 [label="X[3] <= 31.0\ngini = 0.5\nsamples = 2\nvalue = [1, 1]"] ;
478 -> 480 ;
481 [label="gini = 0.0\nsamples = 1\nvalue = [0, 1]"] ;
480 -> 481 ;
482 [label="gini = 0.0\nsamples = 1\nvalue = [1, 0]"] ;
480 -> 482 ;
483 [label="gini = 0.0\nsamples = 2\nvalue = [0, 2]"] ;
465 -> 483 ;
484 [label="gini = 0.0\nsamples = 4\nvalue = [0, 4]"] ;
462 -> 484 ;
485 [label="X[14] <= 16.5\ngini = 0.3599\nsamples = 17\nvalue = [4, 13]"] ;
461 -> 485 ;
486 [label="gini = 0.0\nsamples = 8\nvalue = [0, 8]"] ;
485 -> 486 ;
487 [label="X[1] <= 27.5\ngini = 0.4938\nsamples = 9\nvalue = [4, 5]"] ;
485 -> 487 ;
488 [label="X[19] <= 66.0\ngini = 0.4898\nsamples = 7\nvalue = [4, 3]"] ;
487 -> 488 ;
489 [label="gini = 0.0\nsamples = 2\nvalue = [2, 0]"] ;
488 -> 489 ;
490 [label="X[4] <= -515.5\ngini = 0.48\nsamples = 5\nvalue = [2, 3]"] ;
488 -> 490 ;
491 [label="X[2] <= 15.0\ngini = 0.4444\nsamples = 3\nvalue = [2, 1]"] ;
490 -> 491 ;
492 [label="gini = 0.0\nsamples = 1\nvalue = [0, 1]"] ;
491 -> 492 ;
493 [label="gini = 0.0\nsamples = 2\nvalue = [2, 0]"] ;
491 -> 493 ;
494 [label="gini = 0.0\nsamples = 2\nvalue = [0, 2]"] ;
490 -> 494 ;
495 [label="gini = 0.0\nsamples = 2\nvalue = [0, 2]"] ;
487 -> 495 ;
496 [label="X[15] <= 30.5\ngini = 0.2449\nsamples = 14\nvalue = [12, 2]"] ;
460 -> 496 ;
497 [label="X[17] <= 9882.0\ngini = 0.4444\nsamples = 6\nvalue = [4, 2]"] ;
496 -> 497 ;
498 [label="gini = 0.0\nsamples = 4\nvalue = [4, 0]"] ;
497 -> 498 ;
499 [label="gini = 0.0\nsamples = 2\nvalue = [0, 2]"] ;
497 -> 499 ;
500 [label="gini = 0.0\nsamples = 8\nvalue = [8, 0]"] ;
496 -> 500 ;
501 [label="X[1] <= 29.5\ngini = 0.2717\nsamples = 37\nvalue = [31, 6]"] ;
399 -> 501 ;
502 [label="gini = 0.0\nsamples = 17\nvalue = [17, 0]"] ;
501 -> 502 ;
503 [label="X[2] <= 21.5\ngini = 0.42\nsamples = 20\nvalue = [14, 6]"] ;
501 -> 503 ;
504 [label="gini = 0.0\nsamples = 2\nvalue = [0, 2]"] ;
503 -> 504 ;
505 [label="X[19] <= 22.5\ngini = 0.3457\nsamples = 18\nvalue = [14, 4]"] ;
503 -> 505 ;
506 [label="X[9] <= 36.0\ngini = 0.4444\nsamples = 3\nvalue = [1, 2]"] ;
505 -> 506 ;
507 [label="gini = 0.0\nsamples = 2\nvalue = [0, 2]"] ;
506 -> 507 ;
508 [label="gini = 0.0\nsamples = 1\nvalue = [1, 0]"] ;
506 -> 508 ;
509 [label="X[17] <= 2163.5\ngini = 0.2311\nsamples = 15\nvalue = [13, 2]"] ;
505 -> 509 ;
510 [label="X[18] <= 504.0\ngini = 0.48\nsamples = 5\nvalue = [3, 2]"] ;
509 -> 510 ;
511 [label="gini = 0.0\nsamples = 3\nvalue = [3, 0]"] ;
510 -> 511 ;
512 [label="gini = 0.0\nsamples = 2\nvalue = [0, 2]"] ;
510 -> 512 ;
513 [label="gini = 0.0\nsamples = 10\nvalue = [10, 0]"] ;
509 -> 513 ;
514 [label="X[17] <= 1585.0\ngini = 0.48\nsamples = 65\nvalue = [26, 39]"] ;
104 -> 514 ;
515 [label="X[9] <= 37.5\ngini = 0.1975\nsamples = 9\nvalue = [8, 1]"] ;
514 -> 515 ;
516 [label="gini = 0.0\nsamples = 8\nvalue = [8, 0]"] ;
515 -> 516 ;
517 [label="gini = 0.0\nsamples = 1\nvalue = [0, 1]"] ;
515 -> 517 ;
518 [label="X[17] <= 2783.0\ngini = 0.4362\nsamples = 56\nvalue = [18, 38]"] ;
514 -> 518 ;
519 [label="X[19] <= 54.5\ngini = 0.142\nsamples = 26\nvalue = [2, 24]"] ;
518 -> 519 ;
520 [label="gini = 0.0\nsamples = 21\nvalue = [0, 21]"] ;
519 -> 520 ;
521 [label="X[17] <= 2459.0\ngini = 0.48\nsamples = 5\nvalue = [2, 3]"] ;
519 -> 521 ;
522 [label="gini = 0.0\nsamples = 2\nvalue = [2, 0]"] ;
521 -> 522 ;
523 [label="gini = 0.0\nsamples = 3\nvalue = [0, 3]"] ;
521 -> 523 ;
524 [label="X[7] <= 28.5\ngini = 0.4978\nsamples = 30\nvalue = [16, 14]"] ;
518 -> 524 ;
525 [label="X[1] <= 38.5\ngini = 0.4688\nsamples = 24\nvalue = [15, 9]"] ;
524 -> 525 ;
526 [label="X[19] <= 32.5\ngini = 0.5\nsamples = 18\nvalue = [9, 9]"] ;
525 -> 526 ;
527 [label="gini = 0.0\nsamples = 4\nvalue = [4, 0]"] ;
526 -> 527 ;
528 [label="X[19] <= 44.0\ngini = 0.4592\nsamples = 14\nvalue = [5, 9]"] ;
526 -> 528 ;
529 [label="gini = 0.0\nsamples = 5\nvalue = [0, 5]"] ;
528 -> 529 ;
530 [label="X[16] <= 3510.0\ngini = 0.4938\nsamples = 9\nvalue = [5, 4]"] ;
528 -> 530 ;
531 [label="gini = 0.0\nsamples = 4\nvalue = [4, 0]"] ;
530 -> 531 ;
532 [label="X[19] <= 51.0\ngini = 0.32\nsamples = 5\nvalue = [1, 4]"] ;
530 -> 532 ;
533 [label="gini = 0.0\nsamples = 1\nvalue = [1, 0]"] ;
532 -> 533 ;
534 [label="gini = 0.0\nsamples = 4\nvalue = [0, 4]"] ;
532 -> 534 ;
535 [label="gini = 0.0\nsamples = 6\nvalue = [6, 0]"] ;
525 -> 535 ;
536 [label="X[18] <= 655.0\ngini = 0.2778\nsamples = 6\nvalue = [1, 5]"] ;
524 -> 536 ;
537 [label="gini = 0.0\nsamples = 1\nvalue = [1, 0]"] ;
536 -> 537 ;
538 [label="gini = 0.0\nsamples = 5\nvalue = [0, 5]"] ;
536 -> 538 ;
539 [label="X[10] <= 29.5\ngini = 0.2522\nsamples = 1392\nvalue = [1186, 206]"] ;
1 -> 539 ;
540 [label="X[9] <= 27.5\ngini = 0.1425\nsamples = 1088\nvalue = [1004, 84]"] ;
539 -> 540 ;
541 [label="X[3] <= 46.5\ngini = 0.0462\nsamples = 634\nvalue = [619, 15]"] ;
540 -> 541 ;
542 [label="X[11] <= 6.5\ngini = 0.0403\nsamples = 632\nvalue = [619, 13]"] ;
541 -> 542 ;
543 [label="X[18] <= 200.5\ngini = 0.48\nsamples = 5\nvalue = [3, 2]"] ;
542 -> 543 ;
544 [label="gini = 0.0\nsamples = 3\nvalue = [3, 0]"] ;
543 -> 544 ;
545 [label="gini = 0.0\nsamples = 2\nvalue = [0, 2]"] ;
543 -> 545 ;
546 [label="X[12] <= 30.5\ngini = 0.0345\nsamples = 627\nvalue = [616, 11]"] ;
542 -> 546 ;
547 [label="X[2] <= 5.5\ngini = 0.0084\nsamples = 477\nvalue = [475, 2]"] ;
546 -> 547 ;
548 [label="X[1] <= 12.0\ngini = 0.2188\nsamples = 8\nvalue = [7, 1]"] ;
547 -> 548 ;
549 [label="gini = 0.0\nsamples = 7\nvalue = [7, 0]"] ;
548 -> 549 ;
550 [label="gini = 0.0\nsamples = 1\nvalue = [0, 1]"] ;
548 -> 550 ;
551 [label="X[4] <= 68.5\ngini = 0.0043\nsamples = 469\nvalue = [468, 1]"] ;
547 -> 551 ;
552 [label="X[7] <= 21.5\ngini = 0.0454\nsamples = 43\nvalue = [42, 1]"] ;
551 -> 552 ;
553 [label="gini = 0.0\nsamples = 42\nvalue = [42, 0]"] ;
552 -> 553 ;
554 [label="gini = 0.0\nsamples = 1\nvalue = [0, 1]"] ;
552 -> 554 ;
555 [label="gini = 0.0\nsamples = 426\nvalue = [426, 0]"] ;
551 -> 555 ;
556 [label="X[11] <= 13.5\ngini = 0.1128\nsamples = 150\nvalue = [141, 9]"] ;
546 -> 556 ;
557 [label="gini = 0.0\nsamples = 2\nvalue = [0, 2]"] ;
556 -> 557 ;
558 [label="X[19] <= 176.5\ngini = 0.0901\nsamples = 148\nvalue = [141, 7]"] ;
556 -> 558 ;
559 [label="X[3] <= 32.5\ngini = 0.0788\nsamples = 146\nvalue = [140, 6]"] ;
558 -> 559 ;
560 [label="X[18] <= 139.0\ngini = 0.0354\nsamples = 111\nvalue = [109, 2]"] ;
559 -> 560 ;
561 [label="X[4] <= 78.5\ngini = 0.5\nsamples = 2\nvalue = [1, 1]"] ;
560 -> 561 ;
562 [label="gini = 0.0\nsamples = 1\nvalue = [0, 1]"] ;
561 -> 562 ;
563 [label="gini = 0.0\nsamples = 1\nvalue = [1, 0]"] ;
561 -> 563 ;
564 [label="X[13] <= 29.5\ngini = 0.0182\nsamples = 109\nvalue = [108, 1]"] ;
560 -> 564 ;
565 [label="gini = 0.0\nsamples = 105\nvalue = [105, 0]"] ;
564 -> 565 ;
566 [label="X[12] <= 34.5\ngini = 0.375\nsamples = 4\nvalue = [3, 1]"] ;
564 -> 566 ;
567 [label="gini = 0.0\nsamples = 3\nvalue = [3, 0]"] ;
566 -> 567 ;
568 [label="gini = 0.0\nsamples = 1\nvalue = [0, 1]"] ;
566 -> 568 ;
569 [label="X[8] <= 18.5\ngini = 0.2024\nsamples = 35\nvalue = [31, 4]"] ;
559 -> 569 ;
570 [label="X[17] <= 36429.5\ngini = 0.1207\nsamples = 31\nvalue = [29, 2]"] ;
569 -> 570 ;
571 [label="X[1] <= 27.5\ngini = 0.0666\nsamples = 29\nvalue = [28, 1]"] ;
570 -> 571 ;
572 [label="X[10] <= 28.0\ngini = 0.5\nsamples = 2\nvalue = [1, 1]"] ;
571 -> 572 ;
573 [label="gini = 0.0\nsamples = 1\nvalue = [0, 1]"] ;
572 -> 573 ;
574 [label="gini = 0.0\nsamples = 1\nvalue = [1, 0]"] ;
572 -> 574 ;
575 [label="gini = 0.0\nsamples = 27\nvalue = [27, 0]"] ;
571 -> 575 ;
576 [label="X[19] <= 71.0\ngini = 0.5\nsamples = 2\nvalue = [1, 1]"] ;
570 -> 576 ;
577 [label="gini = 0.0\nsamples = 1\nvalue = [0, 1]"] ;
576 -> 577 ;
578 [label="gini = 0.0\nsamples = 1\nvalue = [1, 0]"] ;
576 -> 578 ;
579 [label="X[17] <= 10670.5\ngini = 0.5\nsamples = 4\nvalue = [2, 2]"] ;
569 -> 579 ;
580 [label="gini = 0.0\nsamples = 2\nvalue = [0, 2]"] ;
579 -> 580 ;
581 [label="gini = 0.0\nsamples = 2\nvalue = [2, 0]"] ;
579 -> 581 ;
582 [label="X[6] <= 83.5\ngini = 0.5\nsamples = 2\nvalue = [1, 1]"] ;
558 -> 582 ;
583 [label="gini = 0.0\nsamples = 1\nvalue = [1, 0]"] ;
582 -> 583 ;
584 [label="gini = 0.0\nsamples = 1\nvalue = [0, 1]"] ;
582 -> 584 ;
585 [label="gini = 0.0\nsamples = 2\nvalue = [0, 2]"] ;
541 -> 585 ;
586 [label="X[2] <= 25.5\ngini = 0.2578\nsamples = 454\nvalue = [385, 69]"] ;
540 -> 586 ;
587 [label="X[18] <= 2640.5\ngini = 0.212\nsamples = 390\nvalue = [343, 47]"] ;
586 -> 587 ;
588 [label="X[15] <= 33.5\ngini = 0.1658\nsamples = 307\nvalue = [279, 28]"] ;
587 -> 588 ;
589 [label="X[17] <= 1538.5\ngini = 0.1254\nsamples = 253\nvalue = [236, 17]"] ;
588 -> 589 ;
590 [label="X[19] <= 114.0\ngini = 0.3122\nsamples = 31\nvalue = [25, 6]"] ;
589 -> 590 ;
591 [label="X[19] <= 22.0\ngini = 0.2378\nsamples = 29\nvalue = [25, 4]"] ;
590 -> 591 ;
592 [label="X[17] <= 1332.5\ngini = 0.4628\nsamples = 11\nvalue = [7, 4]"] ;
591 -> 592 ;
593 [label="X[19] <= 13.0\ngini = 0.2188\nsamples = 8\nvalue = [7, 1]"] ;
592 -> 593 ;
594 [label="gini = 0.0\nsamples = 7\nvalue = [7, 0]"] ;
593 -> 594 ;
595 [label="gini = 0.0\nsamples = 1\nvalue = [0, 1]"] ;
593 -> 595 ;
596 [label="gini = 0.0\nsamples = 3\nvalue = [0, 3]"] ;
592 -> 596 ;
597 [label="gini = 0.0\nsamples = 18\nvalue = [18, 0]"] ;
591 -> 597 ;
598 [label="gini = 0.0\nsamples = 2\nvalue = [0, 2]"] ;
590 -> 598 ;
599 [label="X[12] <= 23.5\ngini = 0.0942\nsamples = 222\nvalue = [211, 11]"] ;
589 -> 599 ;
600 [label="X[8] <= 19.0\ngini = 0.4082\nsamples = 7\nvalue = [5, 2]"] ;
599 -> 600 ;
601 [label="gini = 0.0\nsamples = 5\nvalue = [5, 0]"] ;
600 -> 601 ;
602 [label="gini = 0.0\nsamples = 2\nvalue = [0, 2]"] ;
600 -> 602 ;
603 [label="X[2] <= 24.5\ngini = 0.0802\nsamples = 215\nvalue = [206, 9]"] ;
599 -> 603 ;
604 [label="X[7] <= 20.5\ngini = 0.0653\nsamples = 207\nvalue = [200, 7]"] ;
603 -> 604 ;
605 [label="X[12] <= 29.5\ngini = 0.375\nsamples = 4\nvalue = [3, 1]"] ;
604 -> 605 ;
606 [label="gini = 0.0\nsamples = 1\nvalue = [0, 1]"] ;
605 -> 606 ;
607 [label="gini = 0.0\nsamples = 3\nvalue = [3, 0]"] ;
605 -> 607 ;
608 [label="X[5] <= 67.5\ngini = 0.0574\nsamples = 203\nvalue = [197, 6]"] ;
604 -> 608 ;
609 [label="X[5] <= 66.5\ngini = 0.1446\nsamples = 51\nvalue = [47, 4]"] ;
608 -> 609 ;
610 [label="X[6] <= 83.5\ngini = 0.0476\nsamples = 41\nvalue = [40, 1]"] ;
609 -> 610 ;
611 [label="gini = 0.0\nsamples = 36\nvalue = [36, 0]"] ;
610 -> 611 ;
612 [label="X[11] <= 18.5\ngini = 0.32\nsamples = 5\nvalue = [4, 1]"] ;
610 -> 612 ;
613 [label="gini = 0.0\nsamples = 4\nvalue = [4, 0]"] ;
612 -> 613 ;
614 [label="gini = 0.0\nsamples = 1\nvalue = [0, 1]"] ;
612 -> 614 ;
615 [label="X[16] <= 5690.5\ngini = 0.42\nsamples = 10\nvalue = [7, 3]"] ;
609 -> 615 ;
616 [label="X[11] <= 21.5\ngini = 0.2188\nsamples = 8\nvalue = [7, 1]"] ;
615 -> 616 ;
617 [label="gini = 0.0\nsamples = 7\nvalue = [7, 0]"] ;
616 -> 617 ;
618 [label="gini = 0.0\nsamples = 1\nvalue = [0, 1]"] ;
616 -> 618 ;
619 [label="gini = 0.0\nsamples = 2\nvalue = [0, 2]"] ;
615 -> 619 ;
620 [label="X[1] <= 30.5\ngini = 0.026\nsamples = 152\nvalue = [150, 2]"] ;
608 -> 620 ;
621 [label="X[14] <= 10.5\ngini = 0.0132\nsamples = 150\nvalue = [149, 1]"] ;
620 -> 621 ;
622 [label="X[6] <= 85.5\ngini = 0.1172\nsamples = 16\nvalue = [15, 1]"] ;
621 -> 622 ;
623 [label="X[7] <= 24.0\ngini = 0.5\nsamples = 2\nvalue = [1, 1]"] ;
622 -> 623 ;
624 [label="gini = 0.0\nsamples = 1\nvalue = [0, 1]"] ;
623 -> 624 ;
625 [label="gini = 0.0\nsamples = 1\nvalue = [1, 0]"] ;
623 -> 625 ;
626 [label="gini = 0.0\nsamples = 14\nvalue = [14, 0]"] ;
622 -> 626 ;
627 [label="gini = 0.0\nsamples = 134\nvalue = [134, 0]"] ;
621 -> 627 ;
628 [label="X[11] <= 17.0\ngini = 0.5\nsamples = 2\nvalue = [1, 1]"] ;
620 -> 628 ;
629 [label="gini = 0.0\nsamples = 1\nvalue = [1, 0]"] ;
628 -> 629 ;
630 [label="gini = 0.0\nsamples = 1\nvalue = [0, 1]"] ;
628 -> 630 ;
631 [label="X[14] <= 17.5\ngini = 0.375\nsamples = 8\nvalue = [6, 2]"] ;
603 -> 631 ;
632 [label="gini = 0.0\nsamples = 5\nvalue = [5, 0]"] ;
631 -> 632 ;
633 [label="X[14] <= 20.0\ngini = 0.4444\nsamples = 3\nvalue = [1, 2]"] ;
631 -> 633 ;
634 [label="gini = 0.0\nsamples = 2\nvalue = [0, 2]"] ;
633 -> 634 ;
635 [label="gini = 0.0\nsamples = 1\nvalue = [1, 0]"] ;
633 -> 635 ;
636 [label="X[14] <= 16.5\ngini = 0.3244\nsamples = 54\nvalue = [43, 11]"] ;
588 -> 636 ;
637 [label="gini = 0.0\nsamples = 2\nvalue = [0, 2]"] ;
636 -> 637 ;
638 [label="X[12] <= 37.5\ngini = 0.2862\nsamples = 52\nvalue = [43, 9]"] ;
636 -> 638 ;
639 [label="X[8] <= 11.5\ngini = 0.2449\nsamples = 49\nvalue = [42, 7]"] ;
638 -> 639 ;
640 [label="gini = 0.0\nsamples = 1\nvalue = [0, 1]"] ;
639 -> 640 ;
641 [label="X[9] <= 33.5\ngini = 0.2188\nsamples = 48\nvalue = [42, 6]"] ;
639 -> 641 ;
642 [label="X[11] <= 21.5\ngini = 0.1023\nsamples = 37\nvalue = [35, 2]"] ;
641 -> 642 ;
643 [label="X[8] <= 19.5\ngini = 0.0555\nsamples = 35\nvalue = [34, 1]"] ;
642 -> 643 ;
644 [label="gini = 0.0\nsamples = 27\nvalue = [27, 0]"] ;
643 -> 644 ;
645 [label="X[16] <= 3347.0\ngini = 0.2188\nsamples = 8\nvalue = [7, 1]"] ;
643 -> 645 ;
646 [label="X[14] <= 25.5\ngini = 0.5\nsamples = 2\nvalue = [1, 1]"] ;
645 -> 646 ;
647 [label="gini = 0.0\nsamples = 1\nvalue = [0, 1]"] ;
646 -> 647 ;
648 [label="gini = 0.0\nsamples = 1\nvalue = [1, 0]"] ;
646 -> 648 ;
649 [label="gini = 0.0\nsamples = 6\nvalue = [6, 0]"] ;
645 -> 649 ;
650 [label="X[3] <= 30.0\ngini = 0.5\nsamples = 2\nvalue = [1, 1]"] ;
642 -> 650 ;
651 [label="gini = 0.0\nsamples = 1\nvalue = [0, 1]"] ;
650 -> 651 ;
652 [label="gini = 0.0\nsamples = 1\nvalue = [1, 0]"] ;
650 -> 652 ;
653 [label="X[2] <= 19.5\ngini = 0.4628\nsamples = 11\nvalue = [7, 4]"] ;
641 -> 653 ;
654 [label="X[16] <= 4086.5\ngini = 0.4444\nsamples = 6\nvalue = [2, 4]"] ;
653 -> 654 ;
655 [label="gini = 0.0\nsamples = 3\nvalue = [0, 3]"] ;
654 -> 655 ;
656 [label="X[10] <= 24.0\ngini = 0.4444\nsamples = 3\nvalue = [2, 1]"] ;
654 -> 656 ;
657 [label="gini = 0.0\nsamples = 1\nvalue = [0, 1]"] ;
656 -> 657 ;
658 [label="gini = 0.0\nsamples = 2\nvalue = [2, 0]"] ;
656 -> 658 ;
659 [label="gini = 0.0\nsamples = 5\nvalue = [5, 0]"] ;
653 -> 659 ;
660 [label="X[6] <= 86.0\ngini = 0.4444\nsamples = 3\nvalue = [1, 2]"] ;
638 -> 660 ;
661 [label="gini = 0.0\nsamples = 1\nvalue = [1, 0]"] ;
660 -> 661 ;
662 [label="gini = 0.0\nsamples = 2\nvalue = [0, 2]"] ;
660 -> 662 ;
663 [label="X[18] <= 2829.5\ngini = 0.353\nsamples = 83\nvalue = [64, 19]"] ;
587 -> 663 ;
664 [label="X[19] <= 123.5\ngini = 0.32\nsamples = 5\nvalue = [1, 4]"] ;
663 -> 664 ;
665 [label="gini = 0.0\nsamples = 4\nvalue = [0, 4]"] ;
664 -> 665 ;
666 [label="gini = 0.0\nsamples = 1\nvalue = [1, 0]"] ;
664 -> 666 ;
667 [label="X[19] <= 35.0\ngini = 0.3107\nsamples = 78\nvalue = [63, 15]"] ;
663 -> 667 ;
668 [label="gini = 0.0\nsamples = 2\nvalue = [0, 2]"] ;
667 -> 668 ;
669 [label="X[19] <= 149.5\ngini = 0.2836\nsamples = 76\nvalue = [63, 13]"] ;
667 -> 669 ;
670 [label="X[16] <= 12403.0\ngini = 0.256\nsamples = 73\nvalue = [62, 11]"] ;
669 -> 670 ;
671 [label="X[16] <= 10652.0\ngini = 0.4592\nsamples = 14\nvalue = [9, 5]"] ;
670 -> 671 ;
672 [label="gini = 0.0\nsamples = 5\nvalue = [5, 0]"] ;
671 -> 672 ;
673 [label="X[13] <= 28.5\ngini = 0.4938\nsamples = 9\nvalue = [4, 5]"] ;
671 -> 673 ;
674 [label="X[15] <= 32.5\ngini = 0.2778\nsamples = 6\nvalue = [1, 5]"] ;
673 -> 674 ;
675 [label="gini = 0.0\nsamples = 1\nvalue = [1, 0]"] ;
674 -> 675 ;
676 [label="gini = 0.0\nsamples = 5\nvalue = [0, 5]"] ;
674 -> 676 ;
677 [label="gini = 0.0\nsamples = 3\nvalue = [3, 0]"] ;
673 -> 677 ;
678 [label="X[11] <= 24.5\ngini = 0.1827\nsamples = 59\nvalue = [53, 6]"] ;
670 -> 678 ;
679 [label="X[9] <= 34.5\ngini = 0.1576\nsamples = 58\nvalue = [53, 5]"] ;
678 -> 679 ;
680 [label="X[6] <= 81.5\ngini = 0.1327\nsamples = 56\nvalue = [52, 4]"] ;
679 -> 680 ;
681 [label="X[16] <= 16669.5\ngini = 0.2604\nsamples = 26\nvalue = [22, 4]"] ;
680 -> 681 ;
682 [label="X[13] <= 24.5\ngini = 0.5\nsamples = 4\nvalue = [2, 2]"] ;
681 -> 682 ;
683 [label="gini = 0.0\nsamples = 2\nvalue = [0, 2]"] ;
682 -> 683 ;
684 [label="gini = 0.0\nsamples = 2\nvalue = [2, 0]"] ;
682 -> 684 ;
685 [label="X[14] <= 21.5\ngini = 0.1653\nsamples = 22\nvalue = [20, 2]"] ;
681 -> 685 ;
686 [label="X[16] <= 84779.5\ngini = 0.095\nsamples = 20\nvalue = [19, 1]"] ;
685 -> 686 ;
687 [label="gini = 0.0\nsamples = 16\nvalue = [16, 0]"] ;
686 -> 687 ;
688 [label="X[13] <= 17.5\ngini = 0.375\nsamples = 4\nvalue = [3, 1]"] ;
686 -> 688 ;
689 [label="gini = 0.0\nsamples = 3\nvalue = [3, 0]"] ;
688 -> 689 ;
690 [label="gini = 0.0\nsamples = 1\nvalue = [0, 1]"] ;
688 -> 690 ;
691 [label="X[14] <= 22.5\ngini = 0.5\nsamples = 2\nvalue = [1, 1]"] ;
685 -> 691 ;
692 [label="gini = 0.0\nsamples = 1\nvalue = [0, 1]"] ;
691 -> 692 ;
693 [label="gini = 0.0\nsamples = 1\nvalue = [1, 0]"] ;
691 -> 693 ;
694 [label="gini = 0.0\nsamples = 30\nvalue = [30, 0]"] ;
680 -> 694 ;
695 [label="X[1] <= 29.0\ngini = 0.5\nsamples = 2\nvalue = [1, 1]"] ;
679 -> 695 ;
696 [label="gini = 0.0\nsamples = 1\nvalue = [0, 1]"] ;
695 -> 696 ;
697 [label="gini = 0.0\nsamples = 1\nvalue = [1, 0]"] ;
695 -> 697 ;
698 [label="gini = 0.0\nsamples = 1\nvalue = [0, 1]"] ;
678 -> 698 ;
699 [label="X[5] <= 74.5\ngini = 0.4444\nsamples = 3\nvalue = [1, 2]"] ;
669 -> 699 ;
700 [label="gini = 0.0\nsamples = 2\nvalue = [0, 2]"] ;
699 -> 700 ;
701 [label="gini = 0.0\nsamples = 1\nvalue = [1, 0]"] ;
699 -> 701 ;
702 [label="X[4] <= 74.5\ngini = 0.4512\nsamples = 64\nvalue = [42, 22]"] ;
586 -> 702 ;
703 [label="X[17] <= 81825.0\ngini = 0.2778\nsamples = 6\nvalue = [1, 5]"] ;
702 -> 703 ;
704 [label="gini = 0.0\nsamples = 5\nvalue = [0, 5]"] ;
703 -> 704 ;
705 [label="gini = 0.0\nsamples = 1\nvalue = [1, 0]"] ;
703 -> 705 ;
706 [label="X[12] <= 30.5\ngini = 0.4144\nsamples = 58\nvalue = [41, 17]"] ;
702 -> 706 ;
707 [label="X[4] <= 85.5\ngini = 0.1244\nsamples = 15\nvalue = [14, 1]"] ;
706 -> 707 ;
708 [label="gini = 0.0\nsamples = 14\nvalue = [14, 0]"] ;
707 -> 708 ;
709 [label="gini = 0.0\nsamples = 1\nvalue = [0, 1]"] ;
707 -> 709 ;
710 [label="X[12] <= 31.5\ngini = 0.4673\nsamples = 43\nvalue = [27, 16]"] ;
706 -> 710 ;
711 [label="gini = 0.0\nsamples = 4\nvalue = [0, 4]"] ;
710 -> 711 ;
712 [label="X[17] <= 10806.0\ngini = 0.426\nsamples = 39\nvalue = [27, 12]"] ;
710 -> 712 ;
713 [label="X[15] <= 27.5\ngini = 0.2934\nsamples = 28\nvalue = [23, 5]"] ;
712 -> 713 ;
714 [label="X[9] <= 31.5\ngini = 0.48\nsamples = 5\nvalue = [2, 3]"] ;
713 -> 714 ;
715 [label="gini = 0.0\nsamples = 3\nvalue = [0, 3]"] ;
714 -> 715 ;
716 [label="gini = 0.0\nsamples = 2\nvalue = [2, 0]"] ;
714 -> 716 ;
717 [label="X[4] <= 89.5\ngini = 0.1588\nsamples = 23\nvalue = [21, 2]"] ;
713 -> 717 ;
718 [label="X[19] <= 18.0\ngini = 0.0868\nsamples = 22\nvalue = [21, 1]"] ;
717 -> 718 ;
719 [label="X[11] <= 19.5\ngini = 0.5\nsamples = 2\nvalue = [1, 1]"] ;
718 -> 719 ;
720 [label="gini = 0.0\nsamples = 1\nvalue = [0, 1]"] ;
719 -> 720 ;
721 [label="gini = 0.0\nsamples = 1\nvalue = [1, 0]"] ;
719 -> 721 ;
722 [label="gini = 0.0\nsamples = 20\nvalue = [20, 0]"] ;
718 -> 722 ;
723 [label="gini = 0.0\nsamples = 1\nvalue = [0, 1]"] ;
717 -> 723 ;
724 [label="X[13] <= 25.0\ngini = 0.4628\nsamples = 11\nvalue = [4, 7]"] ;
712 -> 724 ;
725 [label="X[9] <= 32.0\ngini = 0.32\nsamples = 5\nvalue = [4, 1]"] ;
724 -> 725 ;
726 [label="gini = 0.0\nsamples = 4\nvalue = [4, 0]"] ;
725 -> 726 ;
727 [label="gini = 0.0\nsamples = 1\nvalue = [0, 1]"] ;
725 -> 727 ;
728 [label="gini = 0.0\nsamples = 6\nvalue = [0, 6]"] ;
724 -> 728 ;
729 [label="X[11] <= 28.5\ngini = 0.4805\nsamples = 304\nvalue = [182, 122]"] ;
539 -> 729 ;
730 [label="X[16] <= 4316.5\ngini = 0.451\nsamples = 262\nvalue = [172, 90]"] ;
729 -> 730 ;
731 [label="X[18] <= 33.0\ngini = 0.2963\nsamples = 94\nvalue = [77, 17]"] ;
730 -> 731 ;
732 [label="gini = 0.0\nsamples = 2\nvalue = [0, 2]"] ;
731 -> 732 ;
733 [label="X[14] <= 25.5\ngini = 0.2729\nsamples = 92\nvalue = [77, 15]"] ;
731 -> 733 ;
734 [label="X[6] <= 92.5\ngini = 0.2164\nsamples = 81\nvalue = [71, 10]"] ;
733 -> 734 ;
735 [label="X[11] <= 20.5\ngini = 0.1692\nsamples = 75\nvalue = [68, 7]"] ;
734 -> 735 ;
736 [label="gini = 0.0\nsamples = 1\nvalue = [0, 1]"] ;
735 -> 736 ;
737 [label="X[19] <= 94.0\ngini = 0.149\nsamples = 74\nvalue = [68, 6]"] ;
735 -> 737 ;
738 [label="X[17] <= 6523.0\ngini = 0.1107\nsamples = 68\nvalue = [64, 4]"] ;
737 -> 738 ;
739 [label="X[7] <= 28.5\ngini = 0.0868\nsamples = 66\nvalue = [63, 3]"] ;
738 -> 739 ;
740 [label="X[18] <= 641.0\ngini = 0.0634\nsamples = 61\nvalue = [59, 2]"] ;
739 -> 740 ;
741 [label="gini = 0.0\nsamples = 40\nvalue = [40, 0]"] ;
740 -> 741 ;
742 [label="X[18] <= 671.5\ngini = 0.1723\nsamples = 21\nvalue = [19, 2]"] ;
740 -> 742 ;
743 [label="gini = 0.0\nsamples = 1\nvalue = [0, 1]"] ;
742 -> 743 ;
744 [label="X[16] <= 2816.0\ngini = 0.095\nsamples = 20\nvalue = [19, 1]"] ;
742 -> 744 ;
745 [label="X[1] <= 29.5\ngini = 0.4444\nsamples = 3\nvalue = [2, 1]"] ;
744 -> 745 ;
746 [label="gini = 0.0\nsamples = 1\nvalue = [0, 1]"] ;
745 -> 746 ;
747 [label="gini = 0.0\nsamples = 2\nvalue = [2, 0]"] ;
745 -> 747 ;
748 [label="gini = 0.0\nsamples = 17\nvalue = [17, 0]"] ;
744 -> 748 ;
749 [label="X[19] <= 48.0\ngini = 0.32\nsamples = 5\nvalue = [4, 1]"] ;
739 -> 749 ;
750 [label="gini = 0.0\nsamples = 3\nvalue = [3, 0]"] ;
749 -> 750 ;
751 [label="X[3] <= 36.0\ngini = 0.5\nsamples = 2\nvalue = [1, 1]"] ;
749 -> 751 ;
752 [label="gini = 0.0\nsamples = 1\nvalue = [1, 0]"] ;
751 -> 752 ;
753 [label="gini = 0.0\nsamples = 1\nvalue = [0, 1]"] ;
751 -> 753 ;
754 [label="X[19] <= 61.0\ngini = 0.5\nsamples = 2\nvalue = [1, 1]"] ;
738 -> 754 ;
755 [label="gini = 0.0\nsamples = 1\nvalue = [0, 1]"] ;
754 -> 755 ;
756 [label="gini = 0.0\nsamples = 1\nvalue = [1, 0]"] ;
754 -> 756 ;
757 [label="X[17] <= 4317.5\ngini = 0.4444\nsamples = 6\nvalue = [4, 2]"] ;
737 -> 757 ;
758 [label="X[10] <= 34.5\ngini = 0.4444\nsamples = 3\nvalue = [1, 2]"] ;
757 -> 758 ;
759 [label="gini = 0.0\nsamples = 2\nvalue = [0, 2]"] ;
758 -> 759 ;
760 [label="gini = 0.0\nsamples = 1\nvalue = [1, 0]"] ;
758 -> 760 ;
761 [label="gini = 0.0\nsamples = 3\nvalue = [3, 0]"] ;
757 -> 761 ;
762 [label="X[15] <= 32.0\ngini = 0.5\nsamples = 6\nvalue = [3, 3]"] ;
734 -> 762 ;
763 [label="gini = 0.0\nsamples = 2\nvalue = [2, 0]"] ;
762 -> 763 ;
764 [label="X[7] <= 22.5\ngini = 0.375\nsamples = 4\nvalue = [1, 3]"] ;
762 -> 764 ;
765 [label="gini = 0.0\nsamples = 1\nvalue = [1, 0]"] ;
764 -> 765 ;
766 [label="gini = 0.0\nsamples = 3\nvalue = [0, 3]"] ;
764 -> 766 ;
767 [label="X[9] <= 31.5\ngini = 0.4959\nsamples = 11\nvalue = [6, 5]"] ;
733 -> 767 ;
768 [label="X[11] <= 24.5\ngini = 0.4082\nsamples = 7\nvalue = [2, 5]"] ;
767 -> 768 ;
769 [label="gini = 0.0\nsamples = 4\nvalue = [0, 4]"] ;
768 -> 769 ;
770 [label="X[2] <= 37.5\ngini = 0.4444\nsamples = 3\nvalue = [2, 1]"] ;
768 -> 770 ;
771 [label="gini = 0.0\nsamples = 2\nvalue = [2, 0]"] ;
770 -> 771 ;
772 [label="gini = 0.0\nsamples = 1\nvalue = [0, 1]"] ;
770 -> 772 ;
773 [label="gini = 0.0\nsamples = 4\nvalue = [4, 0]"] ;
767 -> 773 ;
774 [label="X[8] <= 21.5\ngini = 0.4914\nsamples = 168\nvalue = [95, 73]"] ;
730 -> 774 ;
775 [label="X[19] <= 60.5\ngini = 0.4688\nsamples = 120\nvalue = [75, 45]"] ;
774 -> 775 ;
776 [label="X[5] <= 78.5\ngini = 0.4998\nsamples = 57\nvalue = [28, 29]"] ;
775 -> 776 ;
777 [label="X[11] <= 25.5\ngini = 0.4817\nsamples = 47\nvalue = [19, 28]"] ;
776 -> 777 ;
778 [label="X[19] <= 45.5\ngini = 0.4953\nsamples = 31\nvalue = [17, 14]"] ;
777 -> 778 ;
779 [label="X[9] <= 32.5\ngini = 0.32\nsamples = 15\nvalue = [12, 3]"] ;
778 -> 779 ;
780 [label="X[18] <= 671.5\ngini = 0.1528\nsamples = 12\nvalue = [11, 1]"] ;
779 -> 780 ;
781 [label="gini = 0.0\nsamples = 1\nvalue = [0, 1]"] ;
780 -> 781 ;
782 [label="gini = 0.0\nsamples = 11\nvalue = [11, 0]"] ;
780 -> 782 ;
783 [label="X[11] <= 21.5\ngini = 0.4444\nsamples = 3\nvalue = [1, 2]"] ;
779 -> 783 ;
784 [label="gini = 0.0\nsamples = 1\nvalue = [1, 0]"] ;
783 -> 784 ;
785 [label="gini = 0.0\nsamples = 2\nvalue = [0, 2]"] ;
783 -> 785 ;
786 [label="X[10] <= 31.5\ngini = 0.4297\nsamples = 16\nvalue = [5, 11]"] ;
778 -> 786 ;
787 [label="gini = 0.0\nsamples = 7\nvalue = [0, 7]"] ;
786 -> 787 ;
788 [label="X[16] <= 5819.5\ngini = 0.4938\nsamples = 9\nvalue = [5, 4]"] ;
786 -> 788 ;
789 [label="gini = 0.0\nsamples = 3\nvalue = [3, 0]"] ;
788 -> 789 ;
790 [label="X[3] <= 30.5\ngini = 0.4444\nsamples = 6\nvalue = [2, 4]"] ;
788 -> 790 ;
791 [label="X[14] <= -546.0\ngini = 0.4444\nsamples = 3\nvalue = [2, 1]"] ;
790 -> 791 ;
792 [label="gini = 0.0\nsamples = 1\nvalue = [0, 1]"] ;
791 -> 792 ;
793 [label="gini = 0.0\nsamples = 2\nvalue = [2, 0]"] ;
791 -> 793 ;
794 [label="gini = 0.0\nsamples = 3\nvalue = [0, 3]"] ;
790 -> 794 ;
795 [label="X[19] <= 57.0\ngini = 0.2188\nsamples = 16\nvalue = [2, 14]"] ;
777 -> 795 ;
796 [label="gini = 0.0\nsamples = 12\nvalue = [0, 12]"] ;
795 -> 796 ;
797 [label="X[5] <= 70.5\ngini = 0.5\nsamples = 4\nvalue = [2, 2]"] ;
795 -> 797 ;
798 [label="gini = 0.0\nsamples = 2\nvalue = [2, 0]"] ;
797 -> 798 ;
799 [label="gini = 0.0\nsamples = 2\nvalue = [0, 2]"] ;
797 -> 799 ;
800 [label="X[13] <= 28.5\ngini = 0.18\nsamples = 10\nvalue = [9, 1]"] ;
776 -> 800 ;
801 [label="gini = 0.0\nsamples = 7\nvalue = [7, 0]"] ;
800 -> 801 ;
802 [label="X[11] <= 26.5\ngini = 0.4444\nsamples = 3\nvalue = [2, 1]"] ;
800 -> 802 ;
803 [label="gini = 0.0\nsamples = 1\nvalue = [0, 1]"] ;
802 -> 803 ;
804 [label="gini = 0.0\nsamples = 2\nvalue = [2, 0]"] ;
802 -> 804 ;
805 [label="X[14] <= 19.5\ngini = 0.3789\nsamples = 63\nvalue = [47, 16]"] ;
775 -> 805 ;
806 [label="X[15] <= 27.5\ngini = 0.4882\nsamples = 26\nvalue = [15, 11]"] ;
805 -> 806 ;
807 [label="X[18] <= 1380.5\ngini = 0.2449\nsamples = 14\nvalue = [12, 2]"] ;
806 -> 807 ;
808 [label="X[19] <= 70.5\ngini = 0.4444\nsamples = 3\nvalue = [1, 2]"] ;
807 -> 808 ;
809 [label="gini = 0.0\nsamples = 1\nvalue = [1, 0]"] ;
808 -> 809 ;
810 [label="gini = 0.0\nsamples = 2\nvalue = [0, 2]"] ;
808 -> 810 ;
811 [label="gini = 0.0\nsamples = 11\nvalue = [11, 0]"] ;
807 -> 811 ;
812 [label="X[19] <= 78.5\ngini = 0.375\nsamples = 12\nvalue = [3, 9]"] ;
806 -> 812 ;
813 [label="X[18] <= 3803.5\ngini = 0.5\nsamples = 6\nvalue = [3, 3]"] ;
812 -> 813 ;
814 [label="X[8] <= 16.5\ngini = 0.375\nsamples = 4\nvalue = [1, 3]"] ;
813 -> 814 ;
815 [label="gini = 0.0\nsamples = 1\nvalue = [1, 0]"] ;
814 -> 815 ;
816 [label="gini = 0.0\nsamples = 3\nvalue = [0, 3]"] ;
814 -> 816 ;
817 [label="gini = 0.0\nsamples = 2\nvalue = [2, 0]"] ;
813 -> 817 ;
818 [label="gini = 0.0\nsamples = 6\nvalue = [0, 6]"] ;
812 -> 818 ;
819 [label="X[3] <= 29.5\ngini = 0.2337\nsamples = 37\nvalue = [32, 5]"] ;
805 -> 819 ;
820 [label="X[16] <= 13979.0\ngini = 0.48\nsamples = 10\nvalue = [6, 4]"] ;
819 -> 820 ;
821 [label="gini = 0.0\nsamples = 3\nvalue = [0, 3]"] ;
820 -> 821 ;
822 [label="X[2] <= 22.0\ngini = 0.2449\nsamples = 7\nvalue = [6, 1]"] ;
820 -> 822 ;
823 [label="gini = 0.0\nsamples = 6\nvalue = [6, 0]"] ;
822 -> 823 ;
824 [label="gini = 0.0\nsamples = 1\nvalue = [0, 1]"] ;
822 -> 824 ;
825 [label="X[19] <= 62.5\ngini = 0.0713\nsamples = 27\nvalue = [26, 1]"] ;
819 -> 825 ;
826 [label="X[2] <= 27.0\ngini = 0.375\nsamples = 4\nvalue = [3, 1]"] ;
825 -> 826 ;
827 [label="gini = 0.0\nsamples = 1\nvalue = [0, 1]"] ;
826 -> 827 ;
828 [label="gini = 0.0\nsamples = 3\nvalue = [3, 0]"] ;
826 -> 828 ;
829 [label="gini = 0.0\nsamples = 23\nvalue = [23, 0]"] ;
825 -> 829 ;
830 [label="X[15] <= 24.5\ngini = 0.4861\nsamples = 48\nvalue = [20, 28]"] ;
774 -> 830 ;
831 [label="gini = 0.0\nsamples = 3\nvalue = [3, 0]"] ;
830 -> 831 ;
832 [label="X[11] <= 27.5\ngini = 0.4701\nsamples = 45\nvalue = [17, 28]"] ;
830 -> 832 ;
833 [label="X[14] <= 22.5\ngini = 0.4888\nsamples = 40\nvalue = [17, 23]"] ;
832 -> 833 ;
834 [label="X[18] <= 2425.0\ngini = 0.497\nsamples = 26\nvalue = [14, 12]"] ;
833 -> 834 ;
835 [label="X[17] <= 8957.5\ngini = 0.4082\nsamples = 14\nvalue = [10, 4]"] ;
834 -> 835 ;
836 [label="X[11] <= 24.5\ngini = 0.4938\nsamples = 9\nvalue = [5, 4]"] ;
835 -> 836 ;
837 [label="gini = 0.0\nsamples = 3\nvalue = [3, 0]"] ;
836 -> 837 ;
838 [label="X[19] <= 32.5\ngini = 0.4444\nsamples = 6\nvalue = [2, 4]"] ;
836 -> 838 ;
839 [label="gini = 0.0\nsamples = 2\nvalue = [2, 0]"] ;
838 -> 839 ;
840 [label="gini = 0.0\nsamples = 4\nvalue = [0, 4]"] ;
838 -> 840 ;
841 [label="gini = 0.0\nsamples = 5\nvalue = [5, 0]"] ;
835 -> 841 ;
842 [label="X[16] <= 30096.0\ngini = 0.4444\nsamples = 12\nvalue = [4, 8]"] ;
834 -> 842 ;
843 [label="X[5] <= 71.5\ngini = 0.32\nsamples = 10\nvalue = [2, 8]"] ;
842 -> 843 ;
844 [label="gini = 0.0\nsamples = 5\nvalue = [0, 5]"] ;
843 -> 844 ;
845 [label="X[4] <= 79.0\ngini = 0.48\nsamples = 5\nvalue = [2, 3]"] ;
843 -> 845 ;
846 [label="gini = 0.0\nsamples = 2\nvalue = [2, 0]"] ;
845 -> 846 ;
847 [label="gini = 0.0\nsamples = 3\nvalue = [0, 3]"] ;
845 -> 847 ;
848 [label="gini = 0.0\nsamples = 2\nvalue = [2, 0]"] ;
842 -> 848 ;
849 [label="X[17] <= 19089.0\ngini = 0.3367\nsamples = 14\nvalue = [3, 11]"] ;
833 -> 849 ;
850 [label="gini = 0.0\nsamples = 10\nvalue = [0, 10]"] ;
849 -> 850 ;
851 [label="X[13] <= 27.5\ngini = 0.375\nsamples = 4\nvalue = [3, 1]"] ;
849 -> 851 ;
852 [label="gini = 0.0\nsamples = 1\nvalue = [0, 1]"] ;
851 -> 852 ;
853 [label="gini = 0.0\nsamples = 3\nvalue = [3, 0]"] ;
851 -> 853 ;
854 [label="gini = 0.0\nsamples = 5\nvalue = [0, 5]"] ;
832 -> 854 ;
855 [label="X[1] <= 24.5\ngini = 0.3628\nsamples = 42\nvalue = [10, 32]"] ;
729 -> 855 ;
856 [label="X[10] <= 38.5\ngini = 0.2778\nsamples = 6\nvalue = [5, 1]"] ;
855 -> 856 ;
857 [label="gini = 0.0\nsamples = 5\nvalue = [5, 0]"] ;
856 -> 857 ;
858 [label="gini = 0.0\nsamples = 1\nvalue = [0, 1]"] ;
856 -> 858 ;
859 [label="X[5] <= 81.5\ngini = 0.2392\nsamples = 36\nvalue = [5, 31]"] ;
855 -> 859 ;
860 [label="X[17] <= 2855.5\ngini = 0.2024\nsamples = 35\nvalue = [4, 31]"] ;
859 -> 860 ;
861 [label="gini = 0.0\nsamples = 1\nvalue = [1, 0]"] ;
860 -> 861 ;
862 [label="X[15] <= 26.5\ngini = 0.1609\nsamples = 34\nvalue = [3, 31]"] ;
860 -> 862 ;
863 [label="X[19] <= 96.0\ngini = 0.5\nsamples = 4\nvalue = [2, 2]"] ;
862 -> 863 ;
864 [label="gini = 0.0\nsamples = 2\nvalue = [2, 0]"] ;
863 -> 864 ;
865 [label="gini = 0.0\nsamples = 2\nvalue = [0, 2]"] ;
863 -> 865 ;
866 [label="X[18] <= 1470.0\ngini = 0.0644\nsamples = 30\nvalue = [1, 29]"] ;
862 -> 866 ;
867 [label="X[18] <= 1458.5\ngini = 0.1975\nsamples = 9\nvalue = [1, 8]"] ;
866 -> 867 ;
868 [label="gini = 0.0\nsamples = 8\nvalue = [0, 8]"] ;
867 -> 868 ;
869 [label="gini = 0.0\nsamples = 1\nvalue = [1, 0]"] ;
867 -> 869 ;
870 [label="gini = 0.0\nsamples = 21\nvalue = [0, 21]"] ;
866 -> 870 ;
871 [label="gini = 0.0\nsamples = 1\nvalue = [1, 0]"] ;
859 -> 871 ;
872 [label="X[16] <= 911.0\ngini = 0.4614\nsamples = 252\nvalue = [91, 161]"] ;
0 -> 872 [labeldistance=2.5, labelangle=-45, headlabel="False"] ;
873 [label="X[17] <= 424.5\ngini = 0.1653\nsamples = 11\nvalue = [10, 1]"] ;
872 -> 873 ;
874 [label="gini = 0.0\nsamples = 1\nvalue = [0, 1]"] ;
873 -> 874 ;
875 [label="gini = 0.0\nsamples = 10\nvalue = [10, 0]"] ;
873 -> 875 ;
876 [label="X[0] <= 1.5\ngini = 0.4463\nsamples = 241\nvalue = [81, 160]"] ;
872 -> 876 ;
877 [label="X[17] <= 33537.0\ngini = 0.377\nsamples = 127\nvalue = [32, 95]"] ;
876 -> 877 ;
878 [label="X[6] <= 91.5\ngini = 0.3584\nsamples = 124\nvalue = [29, 95]"] ;
877 -> 878 ;
879 [label="X[1] <= 27.5\ngini = 0.3153\nsamples = 102\nvalue = [20, 82]"] ;
878 -> 879 ;
880 [label="X[18] <= 665.5\ngini = 0.4875\nsamples = 19\nvalue = [8, 11]"] ;
879 -> 880 ;
881 [label="X[9] <= 35.5\ngini = 0.18\nsamples = 10\nvalue = [1, 9]"] ;
880 -> 881 ;
882 [label="gini = 0.0\nsamples = 1\nvalue = [1, 0]"] ;
881 -> 882 ;
883 [label="gini = 0.0\nsamples = 9\nvalue = [0, 9]"] ;
881 -> 883 ;
884 [label="X[17] <= 10891.0\ngini = 0.3457\nsamples = 9\nvalue = [7, 2]"] ;
880 -> 884 ;
885 [label="gini = 0.0\nsamples = 6\nvalue = [6, 0]"] ;
884 -> 885 ;
886 [label="X[7] <= 31.5\ngini = 0.4444\nsamples = 3\nvalue = [1, 2]"] ;
884 -> 886 ;
887 [label="gini = 0.0\nsamples = 2\nvalue = [0, 2]"] ;
886 -> 887 ;
888 [label="gini = 0.0\nsamples = 1\nvalue = [1, 0]"] ;
886 -> 888 ;
889 [label="X[18] <= 1875.5\ngini = 0.2474\nsamples = 83\nvalue = [12, 71]"] ;
879 -> 889 ;
890 [label="X[7] <= 31.5\ngini = 0.355\nsamples = 52\nvalue = [12, 40]"] ;
889 -> 890 ;
891 [label="X[4] <= -518.5\ngini = 0.4989\nsamples = 21\nvalue = [10, 11]"] ;
890 -> 891 ;
892 [label="gini = 0.0\nsamples = 5\nvalue = [0, 5]"] ;
891 -> 892 ;
893 [label="X[16] <= 4971.0\ngini = 0.4688\nsamples = 16\nvalue = [10, 6]"] ;
891 -> 893 ;
894 [label="X[6] <= 87.5\ngini = 0.4688\nsamples = 8\nvalue = [3, 5]"] ;
893 -> 894 ;
895 [label="gini = 0.0\nsamples = 2\nvalue = [2, 0]"] ;
894 -> 895 ;
896 [label="X[2] <= 18.5\ngini = 0.2778\nsamples = 6\nvalue = [1, 5]"] ;
894 -> 896 ;
897 [label="gini = 0.0\nsamples = 1\nvalue = [1, 0]"] ;
896 -> 897 ;
898 [label="gini = 0.0\nsamples = 5\nvalue = [0, 5]"] ;
896 -> 898 ;
899 [label="X[3] <= 34.5\ngini = 0.2188\nsamples = 8\nvalue = [7, 1]"] ;
893 -> 899 ;
900 [label="gini = 0.0\nsamples = 1\nvalue = [0, 1]"] ;
899 -> 900 ;
901 [label="gini = 0.0\nsamples = 7\nvalue = [7, 0]"] ;
899 -> 901 ;
902 [label="X[19] <= 93.0\ngini = 0.1207\nsamples = 31\nvalue = [2, 29]"] ;
890 -> 902 ;
903 [label="X[2] <= 29.5\ngini = 0.0689\nsamples = 28\nvalue = [1, 27]"] ;
902 -> 903 ;
904 [label="gini = 0.0\nsamples = 22\nvalue = [0, 22]"] ;
903 -> 904 ;
905 [label="X[2] <= 30.5\ngini = 0.2778\nsamples = 6\nvalue = [1, 5]"] ;
903 -> 905 ;
906 [label="gini = 0.0\nsamples = 1\nvalue = [1, 0]"] ;
905 -> 906 ;
907 [label="gini = 0.0\nsamples = 5\nvalue = [0, 5]"] ;
905 -> 907 ;
908 [label="X[15] <= 31.5\ngini = 0.4444\nsamples = 3\nvalue = [1, 2]"] ;
902 -> 908 ;
909 [label="gini = 0.0\nsamples = 1\nvalue = [1, 0]"] ;
908 -> 909 ;
910 [label="gini = 0.0\nsamples = 2\nvalue = [0, 2]"] ;
908 -> 910 ;
911 [label="gini = 0.0\nsamples = 31\nvalue = [0, 31]"] ;
889 -> 911 ;
912 [label="X[1] <= 34.5\ngini = 0.4835\nsamples = 22\nvalue = [9, 13]"] ;
878 -> 912 ;
913 [label="X[18] <= 2500.0\ngini = 0.1528\nsamples = 12\nvalue = [1, 11]"] ;
912 -> 913 ;
914 [label="gini = 0.0\nsamples = 11\nvalue = [0, 11]"] ;
913 -> 914 ;
915 [label="gini = 0.0\nsamples = 1\nvalue = [1, 0]"] ;
913 -> 915 ;
916 [label="X[13] <= 22.5\ngini = 0.32\nsamples = 10\nvalue = [8, 2]"] ;
912 -> 916 ;
917 [label="X[14] <= -548.5\ngini = 0.4444\nsamples = 3\nvalue = [1, 2]"] ;
916 -> 917 ;
918 [label="gini = 0.0\nsamples = 1\nvalue = [1, 0]"] ;
917 -> 918 ;
919 [label="gini = 0.0\nsamples = 2\nvalue = [0, 2]"] ;
917 -> 919 ;
920 [label="gini = 0.0\nsamples = 7\nvalue = [7, 0]"] ;
916 -> 920 ;
921 [label="gini = 0.0\nsamples = 3\nvalue = [3, 0]"] ;
877 -> 921 ;
922 [label="X[19] <= 29.5\ngini = 0.4902\nsamples = 114\nvalue = [49, 65]"] ;
876 -> 922 ;
923 [label="X[17] <= 1853.5\ngini = 0.4444\nsamples = 27\nvalue = [18, 9]"] ;
922 -> 923 ;
924 [label="X[17] <= 1321.5\ngini = 0.4688\nsamples = 8\nvalue = [3, 5]"] ;
923 -> 924 ;
925 [label="gini = 0.0\nsamples = 2\nvalue = [2, 0]"] ;
924 -> 925 ;
926 [label="X[15] <= 43.5\ngini = 0.2778\nsamples = 6\nvalue = [1, 5]"] ;
924 -> 926 ;
927 [label="gini = 0.0\nsamples = 4\nvalue = [0, 4]"] ;
926 -> 927 ;
928 [label="X[15] <= 49.5\ngini = 0.5\nsamples = 2\nvalue = [1, 1]"] ;
926 -> 928 ;
929 [label="gini = 0.0\nsamples = 1\nvalue = [1, 0]"] ;
928 -> 929 ;
930 [label="gini = 0.0\nsamples = 1\nvalue = [0, 1]"] ;
928 -> 930 ;
931 [label="X[18] <= 1544.5\ngini = 0.3324\nsamples = 19\nvalue = [15, 4]"] ;
923 -> 931 ;
932 [label="X[8] <= 21.5\ngini = 0.2076\nsamples = 17\nvalue = [15, 2]"] ;
931 -> 932 ;
933 [label="gini = 0.0\nsamples = 1\nvalue = [0, 1]"] ;
932 -> 933 ;
934 [label="X[8] <= 26.5\ngini = 0.1172\nsamples = 16\nvalue = [15, 1]"] ;
932 -> 934 ;
935 [label="gini = 0.0\nsamples = 14\nvalue = [14, 0]"] ;
934 -> 935 ;
936 [label="X[3] <= 43.0\ngini = 0.5\nsamples = 2\nvalue = [1, 1]"] ;
934 -> 936 ;
937 [label="gini = 0.0\nsamples = 1\nvalue = [1, 0]"] ;
936 -> 937 ;
938 [label="gini = 0.0\nsamples = 1\nvalue = [0, 1]"] ;
936 -> 938 ;
939 [label="gini = 0.0\nsamples = 2\nvalue = [0, 2]"] ;
931 -> 939 ;
940 [label="X[17] <= 4562.5\ngini = 0.4587\nsamples = 87\nvalue = [31, 56]"] ;
922 -> 940 ;
941 [label="X[18] <= 509.0\ngini = 0.3503\nsamples = 53\nvalue = [12, 41]"] ;
940 -> 941 ;
942 [label="X[12] <= -540.5\ngini = 0.4986\nsamples = 19\nvalue = [9, 10]"] ;
941 -> 942 ;
943 [label="X[3] <= 46.5\ngini = 0.426\nsamples = 13\nvalue = [4, 9]"] ;
942 -> 943 ;
944 [label="X[13] <= 32.0\ngini = 0.2975\nsamples = 11\nvalue = [2, 9]"] ;
943 -> 944 ;
945 [label="X[1] <= 28.5\ngini = 0.18\nsamples = 10\nvalue = [1, 9]"] ;
944 -> 945 ;
946 [label="X[16] <= 1701.5\ngini = 0.5\nsamples = 2\nvalue = [1, 1]"] ;
945 -> 946 ;
947 [label="gini = 0.0\nsamples = 1\nvalue = [0, 1]"] ;
946 -> 947 ;
948 [label="gini = 0.0\nsamples = 1\nvalue = [1, 0]"] ;
946 -> 948 ;
949 [label="gini = 0.0\nsamples = 8\nvalue = [0, 8]"] ;
945 -> 949 ;
950 [label="gini = 0.0\nsamples = 1\nvalue = [1, 0]"] ;
944 -> 950 ;
951 [label="gini = 0.0\nsamples = 2\nvalue = [2, 0]"] ;
943 -> 951 ;
952 [label="X[6] <= 78.5\ngini = 0.2778\nsamples = 6\nvalue = [5, 1]"] ;
942 -> 952 ;
953 [label="gini = 0.0\nsamples = 1\nvalue = [0, 1]"] ;
952 -> 953 ;
954 [label="gini = 0.0\nsamples = 5\nvalue = [5, 0]"] ;
952 -> 954 ;
955 [label="X[6] <= 92.5\ngini = 0.1609\nsamples = 34\nvalue = [3, 31]"] ;
941 -> 955 ;
956 [label="X[17] <= 3128.0\ngini = 0.1139\nsamples = 33\nvalue = [2, 31]"] ;
955 -> 956 ;
957 [label="gini = 0.0\nsamples = 21\nvalue = [0, 21]"] ;
956 -> 957 ;
958 [label="X[17] <= 3216.0\ngini = 0.2778\nsamples = 12\nvalue = [2, 10]"] ;
956 -> 958 ;
959 [label="gini = 0.0\nsamples = 1\nvalue = [1, 0]"] ;
958 -> 959 ;
960 [label="X[3] <= 33.0\ngini = 0.1653\nsamples = 11\nvalue = [1, 10]"] ;
958 -> 960 ;
961 [label="X[7] <= 33.5\ngini = 0.5\nsamples = 2\nvalue = [1, 1]"] ;
960 -> 961 ;
962 [label="gini = 0.0\nsamples = 1\nvalue = [1, 0]"] ;
961 -> 962 ;
963 [label="gini = 0.0\nsamples = 1\nvalue = [0, 1]"] ;
961 -> 963 ;
964 [label="gini = 0.0\nsamples = 9\nvalue = [0, 9]"] ;
960 -> 964 ;
965 [label="gini = 0.0\nsamples = 1\nvalue = [1, 0]"] ;
955 -> 965 ;
966 [label="X[18] <= 984.0\ngini = 0.4931\nsamples = 34\nvalue = [19, 15]"] ;
940 -> 966 ;
967 [label="gini = 0.0\nsamples = 8\nvalue = [8, 0]"] ;
966 -> 967 ;
968 [label="X[3] <= 33.5\ngini = 0.4882\nsamples = 26\nvalue = [11, 15]"] ;
966 -> 968 ;
969 [label="X[12] <= 36.5\ngini = 0.2188\nsamples = 8\nvalue = [1, 7]"] ;
968 -> 969 ;
970 [label="gini = 0.0\nsamples = 7\nvalue = [0, 7]"] ;
969 -> 970 ;
971 [label="gini = 0.0\nsamples = 1\nvalue = [1, 0]"] ;
969 -> 971 ;
972 [label="X[12] <= 35.5\ngini = 0.4938\nsamples = 18\nvalue = [10, 8]"] ;
968 -> 972 ;
973 [label="X[17] <= 5745.0\ngini = 0.375\nsamples = 12\nvalue = [9, 3]"] ;
972 -> 973 ;
974 [label="gini = 0.0\nsamples = 2\nvalue = [0, 2]"] ;
973 -> 974 ;
975 [label="X[15] <= 35.0\ngini = 0.18\nsamples = 10\nvalue = [9, 1]"] ;
973 -> 975 ;
976 [label="gini = 0.0\nsamples = 9\nvalue = [9, 0]"] ;
975 -> 976 ;
977 [label="gini = 0.0\nsamples = 1\nvalue = [0, 1]"] ;
975 -> 977 ;
978 [label="X[17] <= 5103.5\ngini = 0.2778\nsamples = 6\nvalue = [1, 5]"] ;
972 -> 978 ;
979 [label="gini = 0.0\nsamples = 1\nvalue = [1, 0]"] ;
978 -> 979 ;
980 [label="gini = 0.0\nsamples = 5\nvalue = [0, 5]"] ;
978 -> 980 ;
}